{"learner":{"attributes":{"scikit_learn":"{\"_estimator_type\": \"regressor\"}"},"feature_names":["mfcc_mean_1","mfcc_mean_2","mfcc_mean_3","mfcc_mean_4","mfcc_mean_5","mfcc_mean_6","mfcc_mean_7","mfcc_mean_8","mfcc_mean_9","mfcc_mean_10","mfcc_mean_11","mfcc_mean_12","mfcc_mean_13","mfcc_std_1","mfcc_std_2","mfcc_std_3","mfcc_std_4","mfcc_std_5","mfcc_std_6","mfcc_std_7","mfcc_std_8","mfcc_std_9","mfcc_std_10","mfcc_std_11","mfcc_std_12","mfcc_std_13","zcr","spectral_centroid","rolloff","chroma_1","chroma_2","chroma_3","chroma_4","chroma_5","chroma_6","chroma_7","chroma_8","chroma_9","chroma_10","chroma_11","chroma_12","contrast_1","contrast_2","contrast_3","contrast_4","contrast_5","contrast_6","contrast_7","tonnetz_1","tonnetz_2","tonnetz_3","tonnetz_4","tonnetz_5","tonnetz_6","tempo","spectral_bandwidth","spectral_flatness","rms","rms_std"],"feature_types":["float","float","float","float","float","float","float","float","float","float","float","float","float","float","float","float","float","float","float","float","float","float","float","float","float","float","float","float","float","float","float","float","float","float","float","float","float","float","float","float","float","float","float","float","float","float","float","float","float","float","float","float","float","float","float","float","float","float","float"],"gradient_booster":{"model":{"cats":{"enc":[],"feature_segments":[],"sorted_idx":[]},"gbtree_model_param":{"num_parallel_tree":"1","num_trees":"200"},"iteration_indptr":[0,1,2,3,4,5,6,7,8,9,10,11,12,13,14,15,16,17,18,19,20,21,22,23,24,25,26,27,28,29,30,31,32,33,34,35,36,37,38,39,40,41,42,43,44,45,46,47,48,49,50,51,52,53,54,55,56,57,58,59,60,61,62,63,64,65,66,67,68,69,70,71,72,73,74,75,76,77,78,79,80,81,82,83,84,85,86,87,88,89,90,91,92,93,94,95,96,97,98,99,100,101,102,103,104,105,106,107,108,109,110,111,112,113,114,115,116,117,118,119,120,121,122,123,124,125,126,127,128,129,130,131,132,133,134,135,136,137,138,139,140,141,142,143,144,145,146,147,148,149,150,151,152,153,154,155,156,157,158,159,160,161,162,163,164,165,166,167,168,169,170,171,172,173,174,175,176,177,178,179,180,181,182,183,184,185,186,187,188,189,190,191,192,193,194,195,196,197,198,199,200],"tree_info":[0,0,0,0,0,0,0,0,0,0,0,0,0,0,0,0,0,0,0,0,0,0,0,0,0,0,0,0,0,0,0,0,0,0,0,0,0,0,0,0,0,0,0,0,0,0,0,0,0,0,0,0,0,0,0,0,0,0,0,0,0,0,0,0,0,0,0,0,0,0,0,0,0,0,0,0,0,0,0,0,0,0,0,0,0,0,0,0,0,0,0,0,0,0,0,0,0,0,0,0,0,0,0,0,0,0,0,0,0,0,0,0,0,0,0,0,0,0,0,0,0,0,0,0,0,0,0,0,0,0,0,0,0,0,0,0,0,0,0,0,0,0,0,0,0,0,0,0,0,0,0,0,0,0,0,0,0,0,0,0,0,0,0,0,0,0,0,0,0,0,0,0,0,0,0,0,0,0,0,0,0,0,0,0,0,0,0,0,0,0,0,0,0,0,0,0,0,0,0,0],"trees":[{"base_weights":[-2.1623046E0,3.853122E0,-1.5288128E1,-6.720424E-1,2.7867856E0,4.010414E0,-2.1988337E1,1.701136E1,-7.5950923E0,-4.906273E-1,8.674998E-1,1.0006249E0,-2.4988396E1,-1.9900024E0,2.815357E0,-1.4752944E1,3.1781223E0,-2.4937515E-1,1.0083313E0,-2.6911541E1,6.248474E-4,2.5093727E0,-9.9937516E-1,3.0093727E0,-1.877411E1,-6.703574E0,1.4177081E1,6.248474E-4,1.5062486E-1,-3.2132146E0,-1.7846432E0,6.248474E-4,3.3416647E-1,6.674998E-1,-3.9937517E-1,-3.2406273E-1,-2.2715912E0,2.3416646E-1,-1.0790004E0,5.009373E-1,2.1674998E0],"categories":[],"categories_nodes":[],"categories_segments":[],"categories_sizes":[],"default_left":[0,0,0,0,0,0,0,0,0,0,0,0,0,0,0,0,0,0,0,0,0,0,0,0,0,0,0,0,0,0,0,0,0,0,0,0,0,0,0,0,0],"id":0,"left_children":[1,3,5,7,-1,9,11,13,15,17,-1,-1,19,21,-1,23,25,-1,27,29,-1,31,-1,33,35,37,39,-1,-1,-1,-1,-1,-1,-1,-1,-1,-1,-1,-1,-1,-1],"loss_changes":[5.0332246E3,4.800236E3,2.6742676E3,4.78128E3,0E0,1.302291E2,1.6898247E3,2.3849143E3,2.2060527E3,1.4524929E1,0E0,0E0,6.73125E2,2.0513739E2,0E0,1.2707266E3,1.3992975E3,0E0,1.4874513E0,4.1785156E1,0E0,8.312439E0,0E0,1.293416E2,7.8360547E2,2.8400558E2,3.0385413E2,0E0,0E0,0E0,0E0,0E0,0E0,0E0,0E0,0E0,0E0,0E0,0E0,0E0,0E0],"parents":[2147483647,0,0,1,1,2,2,3,3,5,5,6,6,7,7,8,8,9,9,12,12,13,13,15,15,16,16,18,18,19,19,21,21,23,23,24,24,25,25,26,26],"right_children":[2,4,6,8,-1,10,12,14,16,18,-1,-1,20,22,-1,24,26,-1,28,30,-1,32,-1,34,36,38,40,-1,-1,-1,-1,-1,-1,-1,-1,-1,-1,-1,-1,-1,-1],"split_conditions":[3.3967126E-2,5.426733E-1,-2.8478308E0,-4.393619E-1,2.7867856E0,-3.9684956E0,1.8543934E1,-2.5630005E1,4.0495187E-2,5.73568E1,8.674998E-1,1.0006249E0,1.7951214E1,9.07832E1,2.815357E0,-1.8741613E-2,-6.0044875E-4,-2.4937515E-1,-4.3866543E1,2.7235758E1,6.248474E-4,-1.3402304E2,-9.9937516E-1,-3.716957E1,6.0051923E0,6.5703297E-1,-2.7346067E-2,6.248474E-4,1.5062486E-1,-3.2132146E0,-1.7846432E0,6.248474E-4,3.3416647E-1,6.674998E-1,-3.9937517E-1,-3.2406273E-1,-2.2715912E0,2.3416646E-1,-1.0790004E0,5.009373E-1,2.1674998E0],"split_indices":[51,40,11,11,0,4,1,0,56,1,0,0,2,1,0,48,48,0,0,14,0,0,0,0,22,11,5,0,0,0,0,0,0,0,0,0,0,0,0,0,0],"split_type":[0,0,0,0,0,0,0,0,0,0,0,0,0,0,0,0,0,0,0,0,0,0,0,0,0,0,0,0,0,0,0,0,0,0,0,0,0,0,0,0,0],"sum_hessian":[6.2E1,4.3E1,1.9E1,3.7E1,6E0,5E0,1.4E1,1E1,2.7E1,3E0,2E0,1E0,1.3E1,4E0,6E0,1.6E1,1.1E1,1E0,2E0,1.2E1,1E0,3E0,1E0,3E0,1.3E1,6E0,5E0,1E0,1E0,6E0,6E0,1E0,2E0,2E0,1E0,3E0,1E1,2E0,4E0,3E0,2E0],"tree_param":{"num_deleted":"0","num_feature":"59","num_nodes":"41","size_leaf_vector":"1"}},{"base_weights":[-1.9021655E0,5.4556184E0,-1.3472733E1,1.656698E1,-3.378417E0,-2.5473103E1,-1.3591044E0,2.2391176E1,-7.95945E-1,4.152481E0,-1.4717768E1,1.6828155E-2,-2.7819436E0,6.715711E0,-1.5621952E0,-1.348877E0,2.6460258E1,-5.6316996E0,1.2194579E1,-5.7985106E0,-2.0693471E0,-1.4960232E0,1.1070915E1,1.430935E-1,-3.4542504E-1,7.2557795E-1,2.7546504E0,1.552185E0,-8.815691E0,4.6705914E-1,1.5774854E0,-7.2511065E-1,5.935669E-4,5.967331E-1,-3.887146E-1,1.2639956E0,1.612854E-1,-2.4422074E-2,2.5724983E-1,-2.3690644E-1,-9.835081E-1,5.935669E-4,8.89164E-2],"categories":[],"categories_nodes":[],"categories_segments":[],"categories_sizes":[],"default_left":[0,0,0,0,0,0,0,0,0,0,0,0,0,0,0,0,0,0,0,0,0,0,0,0,0,0,0,0,0,0,0,0,0,0,0,0,0,0,0,0,0,0,0],"id":1,"left_children":[1,3,5,7,9,11,13,15,-1,17,19,-1,-1,21,-1,23,25,27,29,31,-1,33,35,-1,-1,-1,-1,37,39,-1,-1,-1,-1,41,-1,-1,-1,-1,-1,-1,-1,-1,-1],"loss_changes":[5.2666597E3,3.7859807E3,3.454212E3,2.6066152E3,1.939816E3,7.266411E2,1.6021206E3,1.3880947E3,0E0,1.170271E3,3.59698E2,0E0,0E0,3.384363E2,0E0,2.2500435E1,5.0458008E1,1.7379755E2,1.4182556E2,4.2200607E1,0E0,2.233574E1,6.8654175E1,0E0,0E0,0E0,0E0,6.126948E0,9.558228E0,0E0,0E0,0E0,0E0,5.1302445E-1,0E0,0E0,0E0,0E0,0E0,0E0,0E0,0E0,0E0],"parents":[2147483647,0,0,1,1,2,2,3,3,4,4,5,5,6,6,7,7,9,9,10,10,13,13,15,15,16,16,17,17,18,18,19,19,21,21,22,22,27,27,28,28,33,33],"right_children":[2,4,6,8,10,12,14,16,-1,18,20,-1,-1,22,-1,24,26,28,30,32,-1,34,36,-1,-1,-1,-1,38,40,-1,-1,-1,-1,42,-1,-1,-1,-1,-1,-1,-1,-1,-1],"split_conditions":[7.507666E0,4.721776E-1,1.1015314E1,8.436893E0,1.7673784E1,4.7850924E0,1.1374086E-2,-5.5204773E0,-7.95945E-1,5.441985E-1,-2.6978615E1,1.6828155E-2,-2.7819436E0,5.788865E-1,-1.5621952E0,1.0218675E1,-4.5110504E1,-7.423186E0,-8.526383E-1,-1.8760548E1,-2.0693471E0,8.5085045E1,5.2476144E0,1.430935E-1,-3.4542504E-1,7.2557795E-1,2.7546504E0,-2.1445936E1,5.73568E1,4.6705914E-1,1.5774854E0,-7.2511065E-1,5.935669E-4,-4.3866543E1,-3.887146E-1,1.2639956E0,1.612854E-1,-2.4422074E-2,2.5724983E-1,-2.3690644E-1,-9.835081E-1,5.935669E-4,8.89164E-2],"split_indices":[21,37,21,11,14,25,52,12,0,39,0,0,0,11,0,0,0,8,9,2,0,1,6,0,0,0,0,0,1,0,0,0,0,0,0,0,0,0,0,0,0,0,0],"split_type":[0,0,0,0,0,0,0,0,0,0,0,0,0,0,0,0,0,0,0,0,0,0,0,0,0,0,0,0,0,0,0,0,0,0,0,0,0,0,0,0,0,0,0],"sum_hessian":[6E1,3.7E1,2.3E1,1.6E1,2.1E1,1.1E1,1.2E1,1.3E1,3E0,1.3E1,8E0,1E0,1E1,8E0,4E0,2E0,1.1E1,6E0,7E0,4E0,4E0,3E0,5E0,1E0,1E0,1E0,1E1,2E0,4E0,3E0,4E0,3E0,1E0,2E0,1E0,4E0,1E0,1E0,1E0,1E0,3E0,1E0,1E0],"tree_param":{"num_deleted":"0","num_feature":"59","num_nodes":"43","size_leaf_vector":"1"}},{"base_weights":[-1.0135745E0,6.70289E0,-8.439038E0,-3.5185032E0,1.955372E1,-2.9068983E0,-2.1024376E1,1.208357E0,-1.5104639E1,-3.1911125E0,2.6696281E1,-1.4558039E1,4.790756E0,-5.9682465E-1,-2.4473522E0,-1.317602E0,5.021518E0,-1.8883618E0,5.6381227E-4,-1.0866203E0,2.9893188E0,3.4602678E0,1.1869352E0,-3.6927873E-1,-1.5454596E0,-7.533217E0,1.2474432E1,1.0637593E1,2.9267666E-1,1.5986634E-2,4.324112E-1,-1.2323565E0,-2.0571518E0,2.218062E0,2.0235918E0,1.2219174E0,2.1556358E-1,-2.1840027E-1,4.3229166E-1,-3.7643433E-1,1.5322113E-1,-2.2065087E-1,3.8758317E-1],"categories":[],"categories_nodes":[],"categories_segments":[],"categories_sizes":[],"default_left":[0,0,0,0,0,0,0,0,0,0,0,0,0,0,0,0,0,0,0,0,0,0,0,0,0,0,0,0,0,0,0,0,0,0,0,0,0,0,0,0,0,0,0],"id":2,"left_children":[1,3,5,7,9,11,13,15,17,19,21,23,25,-1,-1,-1,27,-1,-1,-1,29,-1,-1,-1,-1,31,33,35,37,-1,-1,-1,39,41,-1,-1,-1,-1,-1,-1,-1,-1,-1],"loss_changes":[3.3798687E3,3.878048E3,2.0275999E3,9.492746E2,2.197123E3,2.0428458E3,3.21313E2,7.792131E2,2.8561353E2,2.2222403E2,7.6156445E2,3.060144E1,1.4196804E3,0E0,0E0,0E0,2.8901944E2,0E0,0E0,0E0,1.063892E1,0E0,0E0,0E0,0E0,1.3204208E2,6.715574E2,4.0734375E1,7.9312546E1,0E0,0E0,0E0,3.027869E1,4.5226654E1,0E0,0E0,0E0,0E0,0E0,0E0,0E0,0E0,0E0],"parents":[2147483647,0,0,1,1,2,2,3,3,4,4,5,5,6,6,7,7,8,8,9,9,10,10,11,11,12,12,16,16,20,20,25,25,26,26,27,27,28,28,32,32,33,33],"right_children":[2,4,6,8,10,12,14,16,18,20,22,24,26,-1,-1,-1,28,-1,-1,-1,30,-1,-1,-1,-1,32,34,36,38,-1,-1,-1,40,42,-1,-1,-1,-1,-1,-1,-1,-1,-1],"split_conditions":[7.5716157E0,6.6297693E0,-1.1661606E1,3.9963607E-2,4.978965E0,-1.7785201E0,2.467494E0,8.98354E-1,1.7951214E1,2.1363264E1,1.7725779E1,3.8063152E0,2.9511306E-1,-5.9682465E-1,-2.4473522E0,-1.317602E0,1.999924E-1,-1.8883618E0,5.6381227E-4,-1.0866203E0,2.2520554E1,3.4602678E0,1.1869352E0,-3.6927873E-1,-1.5454596E0,-7.003683E1,3.7866315E-1,9.244508E0,-3.3853085E1,1.5986634E-2,4.324112E-1,-1.2323565E0,-1.8737825E1,-1.7890371E1,2.0235918E0,1.2219174E0,2.1556358E-1,-2.1840027E-1,4.3229166E-1,-3.7643433E-1,1.5322113E-1,-2.2065087E-1,3.8758317E-1],"split_indices":[18,17,0,49,25,9,3,3,2,0,14,25,36,0,0,0,7,0,0,0,0,0,0,0,0,0,38,0,2,0,0,0,0,4,0,0,0,0,0,0,0,0,0],"split_type":[0,0,0,0,0,0,0,0,0,0,0,0,0,0,0,0,0,0,0,0,0,0,0,0,0,0,0,0,0,0,0,0,0,0,0,0,0,0,0,0,0,0,0],"sum_hessian":[5.7E1,2.8E1,2.9E1,1.6E1,1.2E1,2.1E1,8E0,1.2E1,4E0,3E0,9E0,8E0,1.3E1,2E0,6E0,2E0,1E1,3E0,1E0,1E0,2E0,5E0,4E0,1E0,7E0,5E0,8E0,4E0,6E0,1E0,1E0,2E0,3E0,4E0,4E0,3E0,1E0,4E0,2E0,2E0,1E0,1E0,3E0],"tree_param":{"num_deleted":"0","num_feature":"59","num_nodes":"43","size_leaf_vector":"1"}},{"base_weights":[-1.1268015E0,1.9437916E1,-3.679785E0,6.020363E-1,2.2907043E0,8.431093E-1,-1.5285132E1,-8.034803E0,5.684445E0,-1.951817E1,4.4100437E0,-1.2361661E1,1.9580446E0,1.1377493E1,-9.496059E0,-2.6140995E1,-1.0455574E1,-5.953776E-1,9.713154E-1,-1.5042099E0,-3.240261E0,-5.3729975E-1,4.4988527E0,2.6066096E0,2.0708763E1,6.0428123E0,-1.8272631E0,-2.7920256E0,-6.8430805E-1,-2.499483E0,-1.4729333E0,1.2031174E-1,-2.0961837E-1,1.1483765E-2,-4.3969065E-1,6.093742E-1,1.4043452E-1,-2.7012905E-1,1.1639508E0,2.6002738E0,-2.076083E-1,5.3558353E-4,8.0535126E-1,-4.4378433E-1,1.6577987E-1],"categories":[],"categories_nodes":[],"categories_segments":[],"categories_sizes":[],"default_left":[0,0,0,0,0,0,0,0,0,0,0,0,0,0,0,0,0,0,0,0,0,0,0,0,0,0,0,0,0,0,0,0,0,0,0,0,0,0,0,0,0,0,0,0,0],"id":3,"left_children":[1,3,5,-1,-1,7,9,11,13,15,17,19,21,23,25,27,29,31,-1,-1,33,-1,35,37,39,41,-1,-1,-1,43,-1,-1,-1,-1,-1,-1,-1,-1,-1,-1,-1,-1,-1,-1,-1],"loss_changes":[3.7991257E3,2.3446875E2,3.372232E3,0E0,0E0,2.0657783E3,1.5867432E3,7.592444E2,2.7871646E3,6.2698096E2,1.11960205E2,2.4465149E2,1.3593294E2,1.8284202E3,1.3378201E3,8.362744E1,2.3520355E2,1.0619532E1,0E0,0E0,1.6027573E1,0E0,1.6119278E1,6.547361E2,1.3808301E3,4.851494E1,0E0,0E0,0E0,3.9590294E1,0E0,0E0,0E0,0E0,0E0,0E0,0E0,0E0,0E0,0E0,0E0,0E0,0E0,0E0,0E0],"parents":[2147483647,0,0,1,1,2,2,5,5,6,6,7,7,8,8,9,9,10,10,11,11,12,12,13,13,14,14,15,15,16,16,17,17,20,20,22,22,23,23,24,24,25,25,29,29],"right_children":[2,4,6,-1,-1,8,10,12,14,16,18,20,22,24,26,28,30,32,-1,-1,34,-1,36,38,40,42,-1,-1,-1,44,-1,-1,-1,-1,-1,-1,-1,-1,-1,-1,-1,-1,-1,-1,-1],"split_conditions":[1.4550719E1,1.1869288E2,1.5215731E-2,6.020363E-1,2.2907043E0,3.621374E-1,1.0579151E1,-4.1713953E-1,5.9228206E-1,1.1757914E1,-2.6978615E1,5.72301E-1,-7.003683E1,5.6869974E0,-5.312873E0,1.2666594E1,3.3532036E1,-1.3402304E2,9.713154E-1,-1.5042099E0,-4.3866543E1,-5.3729975E-1,-3.716957E1,9.240414E0,7.443522E0,-4.6980793E1,-1.8272631E0,-2.7920256E0,-6.8430805E-1,-3.6206734E1,-1.4729333E0,1.2031174E-1,-2.0961837E-1,1.1483765E-2,-4.3969065E-1,6.093742E-1,1.4043452E-1,-2.7012905E-1,1.1639508E0,2.6002738E0,-2.076083E-1,5.3558353E-4,8.0535126E-1,-4.4378433E-1,1.6577987E-1],"split_indices":[45,13,48,0,0,39,9,4,36,42,0,33,0,21,10,4,14,0,0,0,0,0,0,16,11,0,0,0,0,0,0,0,0,0,0,0,0,0,0,0,0,0,0,0,0],"split_type":[0,0,0,0,0,0,0,0,0,0,0,0,0,0,0,0,0,0,0,0,0,0,0,0,0,0,0,0,0,0,0,0,0,0,0,0,0,0,0,0,0,0,0,0,0],"sum_hessian":[7E1,7E0,6.3E1,2E0,5E0,4.6E1,1.7E1,1.6E1,3E1,1.4E1,3E0,1.1E1,5E0,2.2E1,8E0,7E0,7E0,2E0,1E0,8E0,3E0,1E0,4E0,1.2E1,1E1,3E0,5E0,6E0,1E0,3E0,4E0,1E0,1E0,1E0,2E0,2E0,2E0,8E0,4E0,8E0,2E0,1E0,2E0,2E0,1E0],"tree_param":{"num_deleted":"0","num_feature":"59","num_nodes":"45","size_leaf_vector":"1"}},{"base_weights":[6.97059E-1,-1.4213848E1,3.7179713E0,-1.5713827E1,1.1429596E-1,1.0116617E1,-8.342276E0,-1.7116934E0,-6.2665635E-1,1.8840893E1,4.477388E0,8.760489E0,-1.423442E1,2.7708874E1,7.6178007E0,-2.2997136E0,1.4873012E1,1.1823721E1,-3.2778358E-1,-6.35727E0,-2.1316912E1,3.1522903E0,1.084452E0,1.1604061E0,1.1260157E0,8.838109E-3,-1.2306384E0,2.1409843E0,4.054213E0,3.1423455E-1,1.3208479E0,-1.0800229E1,1.8964863E0,-9.018356E-1,-2.3913372E0,-2.2248994E-1,3.0304745E-1,-2.1331613E-1,5.8971274E-1,6.096203E-1,-2.0568733E-1,-1.3290797E0,-3.8793945E-1,-9.2773436E-4,3.8068888E-1],"categories":[],"categories_nodes":[],"categories_segments":[],"categories_sizes":[],"default_left":[0,0,0,0,0,0,0,0,0,0,0,0,0,0,0,0,0,0,0,0,0,0,0,0,0,0,0,0,0,0,0,0,0,0,0,0,0,0,0,0,0,0,0,0,0],"id":4,"left_children":[1,3,5,7,-1,9,11,-1,-1,13,15,17,19,21,23,25,27,29,-1,31,33,-1,-1,35,-1,37,-1,-1,39,-1,-1,41,43,-1,-1,-1,-1,-1,-1,-1,-1,-1,-1,-1,-1],"loss_changes":[3.2059646E3,2.9437915E2,4.6373813E3,3.8546387E1,0E0,1.8343718E3,2.2409116E3,0E0,0E0,1.2818115E3,1.7955088E3,2.6001328E2,7.571201E2,1.7271875E2,1.750947E2,3.697234E2,6.2040625E2,1.8602417E1,0E0,3.5052237E2,3.9802246E1,0E0,0E0,3.206551E1,0E0,1.8915749E2,0E0,0E0,7.4933E1,0E0,0E0,5.1860657E1,1.4598419E1,0E0,0E0,0E0,0E0,0E0,0E0,0E0,0E0,0E0,0E0,0E0,0E0],"parents":[2147483647,0,0,1,1,2,2,3,3,5,5,6,6,9,9,10,10,11,11,12,12,13,13,14,14,15,15,16,16,17,17,19,19,20,20,23,23,25,25,28,28,31,31,32,32],"right_children":[2,4,6,8,-1,10,12,-1,-1,14,16,18,20,22,24,26,28,30,-1,32,34,-1,-1,36,-1,38,-1,-1,40,-1,-1,42,44,-1,-1,-1,-1,-1,-1,-1,-1,-1,-1,-1,-1],"split_conditions":[-6.6590675E1,2.3961306E1,5.80961E-1,1.3248108E1,1.1429596E-1,1.6413363E1,3.579125E-1,-1.7116934E0,-6.2665635E-1,4.721776E-1,6.6148615E0,4.1784854E0,6.15459E-1,1.3631384E-1,5.0969443E0,6.2764436E-1,8.797671E0,-4.575907E1,-3.2778358E-1,1.6149902E2,-1.3777757E0,3.1522903E0,1.084452E0,-3.7822933E1,1.1260157E0,1.8299583E1,-1.2306384E0,2.1409843E0,7.5093315E1,3.1423455E-1,1.3208479E0,1.7600286E1,-2.1445936E1,-9.018356E-1,-2.3913372E0,-2.2248994E-1,3.0304745E-1,-2.1331613E-1,5.8971274E-1,6.096203E-1,-2.0568733E-1,-1.3290797E0,-3.8793945E-1,-9.2773436E-4,3.8068888E-1],"split_indices":[0,5,34,19,0,45,37,0,0,37,25,6,37,26,17,36,18,0,0,54,11,0,0,0,0,45,0,0,1,0,0,3,0,0,0,0,0,0,0,0,0,0,0,0,0],"split_type":[0,0,0,0,0,0,0,0,0,0,0,0,0,0,0,0,0,0,0,0,0,0,0,0,0,0,0,0,0,0,0,0,0,0,0,0,0,0,0,0,0,0,0,0,0],"sum_hessian":[6.9E1,1.1E1,5.8E1,1E1,1E0,3.8E1,2E1,8E0,2E0,1.4E1,2.4E1,5E0,1.5E1,7E0,7E0,1.5E1,9E0,4E0,1E0,8E0,7E0,5E0,2E0,3E0,4E0,1.3E1,2E0,5E0,4E0,1E0,3E0,5E0,3E0,2E0,5E0,1E0,2E0,1E1,3E0,3E0,1E0,3E0,2E0,2E0,1E0],"tree_param":{"num_deleted":"0","num_feature":"59","num_nodes":"45","size_leaf_vector":"1"}},{"base_weights":[1.1638066E0,6.373312E0,-8.14064E0,-2.0900395E0,1.1990336E1,1.6332836E0,-1.4962294E1,6.724755E0,-9.913486E0,-1.3838977E0,1.9102243E1,8.17073E0,-9.153287E-1,-2.1765774E1,-7.2522774E0,1.1206186E1,-7.4673146E-1,-1.5568816E1,-2.6059062E0,-8.990802E0,6.4536567E0,-4.3146343E0,2.3762573E1,-3.897901E-1,1.2843257E1,-1.0533746E0,-2.6398244E0,-1.0816384E1,-9.3048096E-2,3.4643325E-1,1.3209416E0,-1.757024E0,-2.7808496E-1,-6.557419E-1,1.0092049E0,-1.2652664E0,-1.2537254E0,1.397634E-1,8.6322594E-1,1.951416E-1,-7.0537896E0,2.5910116E1,5.8198494E-1,1.6815682E-1,1.4739281E0,-4.774511E-1,-1.2643694E0,-1.954029E-1,1.1786219E-1,-8.6568197E-4,2.031395E-1,2.1575546E-2,-2.113655E-1,-1.8996887E-1,-8.6809963E-1,9.090459E-1,2.7955854E0],"categories":[],"categories_nodes":[],"categories_segments":[],"categories_sizes":[],"default_left":[0,0,0,0,0,0,0,0,0,0,0,0,0,0,0,0,0,0,0,0,0,0,0,0,0,0,0,0,0,0,0,0,0,0,0,0,0,0,0,0,0,0,0,0,0,0,0,0,0,0,0,0,0,0,0,0,0],"id":5,"left_children":[1,3,5,7,9,11,13,15,17,19,21,23,-1,25,27,29,-1,31,33,35,37,39,41,-1,43,-1,-1,45,47,-1,-1,-1,-1,-1,49,51,-1,-1,-1,-1,53,55,-1,-1,-1,-1,-1,-1,-1,-1,-1,-1,-1,-1,-1,-1,-1],"loss_changes":[3.6387788E3,2.3069253E3,1.8246444E3,1.445907E3,2.7848086E3,9.2098846E2,6.81428E2,7.19688E2,4.1402368E2,7.138383E2,2.1760034E3,5.0118976E2,0E0,1.381836E2,2.286399E2,7.830786E1,0E0,1.0470471E2,9.232872E1,1.4852646E2,5.402565E1,8.241962E1,4.6573145E2,0E0,1.0219183E2,0E0,0E0,5.874756E0,1.1769277E1,0E0,0E0,0E0,0E0,0E0,4.179378E0,4.225479E0,0E0,0E0,0E0,0E0,8.669159E0,2.2758887E2,0E0,0E0,0E0,0E0,0E0,0E0,0E0,0E0,0E0,0E0,0E0,0E0,0E0,0E0,0E0],"parents":[2147483647,0,0,1,1,2,2,3,3,4,4,5,5,6,6,7,7,8,8,9,9,10,10,11,11,13,13,14,14,15,15,17,17,18,18,19,19,20,20,21,21,22,22,24,24,27,27,28,28,34,34,35,35,40,40,41,41],"right_children":[2,4,6,8,10,12,14,16,18,20,22,24,-1,26,28,30,-1,32,34,36,38,40,42,-1,44,-1,-1,46,48,-1,-1,-1,-1,-1,50,52,-1,-1,-1,-1,54,56,-1,-1,-1,-1,-1,-1,-1,-1,-1,-1,-1,-1,-1,-1,-1],"split_conditions":[8.797671E0,1.2962685E1,7.507666E0,4.936088E3,2.0479819E-2,8.415E0,9.4371395E0,6.934388E0,2.73931E-3,2.229116E-2,6.8431287E0,-3.089111E1,-9.153287E-1,1.0607367E1,-4.315019E1,3.1517747E-1,-7.4673146E-1,6.085633E-1,1.13125336E2,-3.3853085E1,1.1081691E2,-2.5630005E1,2.4703214E0,-3.897901E-1,-4.9290547E0,-1.0533746E0,-2.6398244E0,-2.5112538E0,-3.6206734E1,3.4643325E-1,1.3209416E0,-1.757024E0,-2.7808496E-1,-6.557419E-1,-2.1445936E1,-4.3866543E1,-1.2537254E0,1.397634E-1,8.6322594E-1,1.951416E-1,8.355766E0,2.3085043E-1,5.8198494E-1,1.6815682E-1,1.4739281E0,-4.774511E-1,-1.2643694E0,-1.954029E-1,1.1786219E-1,-8.6568197E-4,2.031395E-1,2.1575546E-2,-2.113655E-1,-1.8996887E-1,-8.6809963E-1,9.090459E-1,2.7955854E0],"split_indices":[18,41,21,28,56,22,21,24,53,49,15,2,0,18,0,31,0,6,13,2,1,0,10,0,3,0,0,6,0,0,0,0,0,0,0,0,0,0,0,0,0,57,0,0,0,0,0,0,0,0,0,0,0,0,0,0,0],"split_type":[0,0,0,0,0,0,0,0,0,0,0,0,0,0,0,0,0,0,0,0,0,0,0,0,0,0,0,0,0,0,0,0,0,0,0,0,0,0,0,0,0,0,0,0,0,0,0,0,0,0,0,0,0,0,0,0,0],"sum_hessian":[7.3E1,4.7E1,2.6E1,1.9E1,2.8E1,1.1E1,1.5E1,9E0,1E1,1E1,1.8E1,7E0,4E0,7E0,8E0,7E0,2E0,5E0,5E0,5E0,5E0,3E0,1.5E1,2E0,5E0,3E0,4E0,5E0,3E0,2E0,5E0,4E0,1E0,2E0,3E0,2E0,3E0,2E0,3E0,1E0,2E0,1.3E1,2E0,1E0,4E0,2E0,3E0,1E0,2E0,2E0,1E0,1E0,1E0,1E0,1E0,2E0,1.1E1],"tree_param":{"num_deleted":"0","num_feature":"59","num_nodes":"57","size_leaf_vector":"1"}},{"base_weights":[-7.007575E-1,9.374033E0,-5.9613442E0,1.914711E1,3.5367906E0,-8.5734415E0,1.1140143E1,6.6251717E0,2.5335238E0,6.1704288E0,-9.054572E-1,-1.0536295E1,1.0254179E1,-5.87451E-1,1.5717977E1,1.8538438E-1,7.5976664E-1,1.3920221E0,1.1513233E1,-1.29976E1,6.33879E0,2.7931976E-1,1.1810107E0,1.7270632E0,4.7536775E-1,-6.338867E-1,3.5764027E-1,2.8120118E-1,1.2691076E0,3.3310902E-1,-1.4282902E1,-1.8145332E0,1.2379184E0,2.1162797E-2,-2.0079727E-1,-1.9372085E0,-1.0379351E0,-3.7434444E-1,1.0216446E-1],"categories":[],"categories_nodes":[],"categories_segments":[],"categories_sizes":[],"default_left":[0,0,0,0,0,0,0,0,0,0,0,0,0,0,0,0,0,0,0,0,0,0,0,0,0,0,0,0,0,0,0,0,0,0,0,0,0,0,0],"id":6,"left_children":[1,3,5,7,9,11,13,15,-1,17,-1,19,21,-1,23,-1,-1,25,27,29,31,-1,-1,-1,-1,33,-1,-1,-1,-1,35,37,-1,-1,-1,-1,-1,-1,-1],"loss_changes":[3.3948386E3,1.1873326E3,1.9716804E3,4.5204858E2,5.53287E2,1.4754082E3,5.5967694E2,4.475479E0,0E0,3.1586453E2,0E0,1.4945693E3,1.3447052E1,0E0,3.0198975E0,0E0,0E0,3.766988E1,2.5804565E1,6.7719727E2,2.6870883E2,0E0,0E0,0E0,0E0,6.2339926E0,0E0,0E0,0E0,0E0,3.5517578E2,2.0236675E1,0E0,0E0,0E0,0E0,0E0,0E0,0E0],"parents":[2147483647,0,0,1,1,2,2,3,3,4,4,5,5,6,6,7,7,9,9,11,11,12,12,14,14,17,17,18,18,19,19,20,20,25,25,30,30,31,31],"right_children":[2,4,6,8,10,12,14,16,-1,18,-1,20,22,-1,24,-1,-1,26,28,30,32,-1,-1,-1,-1,34,-1,-1,-1,-1,36,38,-1,-1,-1,-1,-1,-1,-1],"split_conditions":[5.9367437E0,1.5465058E1,5.9087366E-2,1.4408296E1,1.1752917E1,1.2117599E2,-7.380718E1,3.895207E0,2.5335238E0,7.295672E0,-9.054572E-1,1.4486981E1,-3.716957E1,-5.87451E-1,9.715079E0,1.8538438E-1,7.5976664E-1,-2.1445936E1,-4.575907E1,-4.9290547E0,-3.83496E-1,2.7931976E-1,1.1810107E0,1.7270632E0,4.7536775E-1,8.7878555E1,3.5764027E-1,2.8120118E-1,1.2691076E0,3.3310902E-1,1.166779E2,-8.483988E1,1.2379184E0,2.1162797E-2,-2.0079727E-1,-1.9372085E0,-1.0379351E0,-3.7434444E-1,1.0216446E-1],"split_indices":[20,46,56,3,16,1,0,3,0,16,0,22,0,0,2,0,0,0,0,3,8,0,0,0,0,1,0,0,0,0,13,0,0,0,0,0,0,0,0],"split_type":[0,0,0,0,0,0,0,0,0,0,0,0,0,0,0,0,0,0,0,0,0,0,0,0,0,0,0,0,0,0,0,0,0,0,0,0,0,0,0],"sum_hessian":[6.2E1,2.1E1,4.1E1,7E0,1.4E1,3.6E1,5E0,3E0,4E0,1.2E1,2E0,3.3E1,3E0,1E0,4E0,1E0,2E0,7E0,5E0,2.9E1,4E0,1E0,2E0,3E0,1E0,4E0,3E0,1E0,4E0,2E0,2.7E1,2E0,2E0,3E0,1E0,1E1,1.7E1,1E0,1E0],"tree_param":{"num_deleted":"0","num_feature":"59","num_nodes":"39","size_leaf_vector":"1"}},{"base_weights":[6.3430405E-1,3.9450855E0,-1.0998738E1,-5.722819E0,7.5952406E0,-3.1810617E0,-1.8361979E1,6.980194E0,-9.82184E0,1.5027462E1,1.570917E0,-6.634588E-1,2.179718E-1,-9.169428E-1,-2.2964036E0,2.2635625E-1,1.0565045E0,-1.1677169E0,-9.819107E-1,2.1895012E1,3.0698984E0,7.725884E0,-5.972135E0,-1.613935E-1,1.9772212E-1,9.70562E-2,-2.443428E-1,1.3934861E-1,2.4018127E1,-3.1703034E-1,8.5426253E-1,1.6166022E0,1.3565732E1,3.117052E0,-1.0312794E0,4.368759E-1,2.5928204E0,-1.1594372E-1,3.988491E-1,1.7611504E-1,1.557442E0,-4.5967102E-4,4.159134E-1],"categories":[],"categories_nodes":[],"categories_segments":[],"categories_sizes":[],"default_left":[0,0,0,0,0,0,0,0,0,0,0,0,0,0,0,0,0,0,0,0,0,0,0,0,0,0,0,0,0,0,0,0,0,0,0,0,0,0,0,0,0,0,0],"id":7,"left_children":[1,3,5,7,9,11,13,15,17,19,21,-1,23,-1,-1,-1,-1,-1,25,27,29,31,33,-1,-1,-1,-1,-1,35,-1,-1,37,39,41,-1,-1,-1,-1,-1,-1,-1,-1,-1],"loss_changes":[2.4312878E3,1.7726445E3,7.4747705E2,7.9753723E2,1.588261E3,9.535538E1,8.5565674E1,4.3719025E1,1.689447E2,1.2466907E3,1.02111206E3,0E0,1.930501E1,0E0,0E0,0E0,0E0,0E0,1.0932217E1,4.0180273E2,2.6613913E2,4.0619696E2,4.2667615E2,0E0,0E0,0E0,0E0,0E0,2.2451123E2,0E0,0E0,5.0715603E1,1.1484131E2,1.303117E1,0E0,0E0,0E0,0E0,0E0,0E0,0E0,0E0,0E0],"parents":[2147483647,0,0,1,1,2,2,3,3,4,4,5,5,6,6,7,7,8,8,9,9,10,10,12,12,18,18,19,19,20,20,21,21,22,22,28,28,31,31,32,32,33,33],"right_children":[2,4,6,8,10,12,14,16,18,20,22,-1,24,-1,-1,-1,-1,-1,26,28,30,32,34,-1,-1,-1,-1,-1,36,-1,-1,38,40,42,-1,-1,-1,-1,-1,-1,-1,-1,-1],"split_conditions":[1.5215731E-2,3.3586887E-1,1.0846853E-2,4.5976016E3,4.721776E-1,-3.4363914E1,-2.8344343E0,-4.3866543E1,5.72301E-1,1.3631384E-1,-1.8976826E-2,-6.634588E-1,-2.3914026E1,-9.169428E-1,-2.2964036E0,2.2635625E-1,1.0565045E0,-1.1677169E0,-1.7198229E1,-4.7408306E1,4.4996908E-1,-5.6833315E0,1.5232753E1,-1.613935E-1,1.9772212E-1,9.70562E-2,-2.443428E-1,1.3934861E-1,-4.5110504E1,-3.1703034E-1,8.5426253E-1,8.355766E0,3.895207E0,-4.6980793E1,-1.0312794E0,4.368759E-1,2.5928204E0,-1.1594372E-1,3.988491E-1,1.7611504E-1,1.557442E0,-4.5967102E-4,4.159134E-1],"split_indices":[48,39,53,28,37,2,8,0,33,26,50,0,2,0,0,0,0,0,0,2,39,6,45,0,0,0,0,0,0,0,0,0,3,0,0,0,0,0,0,0,0,0,0],"split_type":[0,0,0,0,0,0,0,0,0,0,0,0,0,0,0,0,0,0,0,0,0,0,0,0,0,0,0,0,0,0,0,0,0,0,0,0,0,0,0,0,0,0,0],"sum_hessian":[6.1E1,4.8E1,1.3E1,1.3E1,3.5E1,7E0,6E0,3E0,1E1,1.5E1,2E1,3E0,4E0,3E0,3E0,2E0,1E0,8E0,2E0,9E0,6E0,1.1E1,9E0,2E0,2E0,1E0,1E0,1E0,8E0,3E0,3E0,6E0,5E0,3E0,6E0,1E0,7E0,3E0,3E0,1E0,4E0,1E0,2E0],"tree_param":{"num_deleted":"0","num_feature":"59","num_nodes":"43","size_leaf_vector":"1"}},{"base_weights":[9.8502445E-1,4.073636E0,-6.962818E0,-2.4887197E0,1.2729135E1,1.8700154E-1,-1.8224964E1,3.3046203E0,-1.1215816E1,3.4149852E0,2.003935E1,3.7957306E0,-7.9793894E-1,-5.122313E-1,-1.9555019E0,-5.942834E0,8.888944E0,-5.901489E-1,-1.3511503E1,8.329511E0,-6.03918E0,2.503814E1,5.0319347E0,1.0691931E0,8.8924074E-1,-1.7616234E0,-8.638336E-1,1.241059E1,-4.638977E-1,1.4360352E-1,-2.3212586E-1,-1.4458176E0,-2.969059E-1,1.145302E0,3.1236228E-1,-1.3627015E-1,-7.143772E-1,1.4308472E0,3.219069E0,6.781036E-1,2.1885554E-1,-5.216624E-1,1.8098679E-1,4.82769E-2,-2.6706773E-1,1.5990812E0,6.3482517E-1,-7.7812575E-2,-4.3678284E-4],"categories":[],"categories_nodes":[],"categories_segments":[],"categories_sizes":[],"default_left":[0,0,0,0,0,0,0,0,0,0,0,0,0,0,0,0,0,0,0,0,0,0,0,0,0,0,0,0,0,0,0,0,0,0,0,0,0,0,0,0,0,0,0,0,0,0,0,0,0],"id":8,"left_children":[1,3,5,7,9,11,13,15,17,19,21,23,-1,-1,-1,25,27,29,31,33,35,37,39,41,-1,43,-1,45,-1,-1,-1,-1,-1,-1,-1,-1,-1,-1,-1,-1,-1,47,-1,-1,-1,-1,-1,-1,-1],"loss_changes":[1.5748755E3,2.6445005E3,1.4528098E3,1.402158E3,1.2933345E3,3.839311E2,2.182373E1,9.307187E2,2.6035144E2,5.149307E2,6.992173E2,1.1555882E2,0E0,0E0,0E0,6.3675735E1,5.8161847E2,1.385605E1,4.689514E1,7.804959E1,1.0927597E1,1.5335596E2,5.052765E0,9.192286E0,0E0,9.450414E0,0E0,9.3826904E1,0E0,0E0,0E0,0E0,0E0,0E0,0E0,0E0,0E0,0E0,0E0,0E0,0E0,3.946026E-1,0E0,0E0,0E0,0E0,0E0,0E0,0E0],"parents":[2147483647,0,0,1,1,2,2,3,3,4,4,5,5,6,6,7,7,8,8,9,9,10,10,11,11,15,15,16,16,17,17,18,18,19,19,20,20,21,21,22,22,23,23,25,25,27,27,41,41],"right_children":[2,4,6,8,10,12,14,16,18,20,22,24,-1,-1,-1,26,28,30,32,34,36,38,40,42,-1,44,-1,46,-1,-1,-1,-1,-1,-1,-1,-1,-1,-1,-1,-1,-1,48,-1,-1,-1,-1,-1,-1,-1],"split_conditions":[3.3967126E-2,5.564839E-1,5.508135E-1,4.7253635E1,2.2667563E-2,3.3532036E1,4.080648E1,-8.92984E-3,-3.0391123E0,7.269578E0,6.992871E-1,4.4776874E0,-7.9793894E-1,-5.122313E-1,-1.9555019E0,-1.9828639E0,9.69215E1,5.2127502E1,-2.5007856E-1,-2.4172199E-1,1.0413181E2,5.330881E0,-5.699803E0,4.425672E0,8.8924074E-1,6.857662E1,-8.638336E-1,8.580308E0,-4.638977E-1,1.4360352E-1,-2.3212586E-1,-1.4458176E0,-2.969059E-1,1.145302E0,3.1236228E-1,-1.3627015E-1,-7.143772E-1,1.4308472E0,3.219069E0,6.781036E-1,2.1885554E-1,5.73568E1,1.8098679E-1,4.82769E-2,-2.6706773E-1,1.5990812E0,6.3482517E-1,-7.7812575E-2,-4.3678284E-4],"split_indices":[51,29,40,47,56,14,1,52,8,7,30,7,0,0,0,10,1,1,2,7,1,24,4,25,0,1,0,25,0,0,0,0,0,0,0,0,0,0,0,0,0,1,0,0,0,0,0,0,0],"split_type":[0,0,0,0,0,0,0,0,0,0,0,0,0,0,0,0,0,0,0,0,0,0,0,0,0,0,0,0,0,0,0,0,0,0,0,0,0,0,0,0,0,0,0,0,0,0,0,0,0],"sum_hessian":[6.2E1,4.5E1,1.7E1,2.6E1,1.9E1,1.1E1,6E0,1.6E1,1E1,9E0,1E1,8E0,3E0,1E0,5E0,6E0,1E1,2E0,8E0,6E0,3E0,7E0,3E0,6E0,2E0,3E0,3E0,8E0,2E0,1E0,1E0,7E0,1E0,3E0,3E0,1E0,2E0,4E0,3E0,1E0,2E0,2E0,4E0,1E0,2E0,4E0,4E0,1E0,1E0],"tree_param":{"num_deleted":"0","num_feature":"59","num_nodes":"49","size_leaf_vector":"1"}},{"base_weights":[1.192871E0,5.3961196E0,-6.9130583E0,2.9103665E0,2.1482746E1,-1.0005975E1,6.84122E0,8.100972E0,-2.944818E0,6.6363883E-1,2.7246828E0,3.2193622E-1,-1.2529232E1,-2.0228806E-1,9.562965E0,-2.604647E0,1.227837E1,-5.0272646E0,1.0531468E0,-5.5195966E0,-1.6884018E1,2.707222E-1,1.0945805E0,-4.187228E0,9.012044E-2,1.6251647E0,1.5694007E1,4.8673743E-1,-1.0595348E1,-2.1150055E0,-1.0488914E0,-4.8661977E-1,-1.7678642E0,-5.288058E-1,-1.6906561E-1,-7.392197E-2,2.4010658E-1,1.7786047E0,7.0634156E-1,-7.69523E-1,3.494133E-1,-1.260694E0,-4.929125E-1,-2.8142872E-1,-4.7762807E-2],"categories":[],"categories_nodes":[],"categories_segments":[],"categories_sizes":[],"default_left":[0,0,0,0,0,0,0,0,0,0,0,0,0,0,0,0,0,0,0,0,0,0,0,0,0,0,0,0,0,0,0,0,0,0,0,0,0,0,0,0,0,0,0,0,0],"id":9,"left_children":[1,3,5,7,9,11,13,15,17,-1,-1,-1,19,-1,21,23,25,27,-1,29,31,-1,-1,33,-1,35,37,39,41,43,-1,-1,-1,-1,-1,-1,-1,-1,-1,-1,-1,-1,-1,-1,-1],"loss_changes":[2.388219E3,1.7768967E3,1.0894332E3,1.269926E3,3.3263354E2,7.077549E2,1.3997388E2,1.01585657E3,6.142174E2,0E0,0E0,0E0,4.2573975E2,0E0,8.288879E0,4.261162E1,5.5669434E2,5.578009E2,0E0,1.1316382E2,9.46875E0,0E0,0E0,4.8012085E0,0E0,1.0947557E1,9.103638E1,2.7295227E2,4.0441895E1,5.5257435E0,0E0,0E0,0E0,0E0,0E0,0E0,0E0,0E0,0E0,0E0,0E0,0E0,0E0,0E0,0E0],"parents":[2147483647,0,0,1,1,2,2,3,3,4,4,5,5,6,6,7,7,8,8,12,12,14,14,15,15,16,16,17,17,19,19,20,20,23,23,25,25,26,26,27,27,28,28,29,29],"right_children":[2,4,6,8,10,12,14,16,18,-1,-1,-1,20,-1,22,24,26,28,-1,30,32,-1,-1,34,-1,36,38,40,42,44,-1,-1,-1,-1,-1,-1,-1,-1,-1,-1,-1,-1,-1,-1,-1],"split_conditions":[9.542025E-3,5.799677E-4,5.9840935E-1,1.0528136E-2,5.39887E0,-1.1126E1,-4.315019E1,2.9948366E-1,6.57016E-1,6.6363883E-1,2.7246828E0,3.2193622E-1,-1.3555168E-2,-2.0228806E-1,-4.9839005E0,1.5326418E0,-1.6808765E-2,-1.0140216E0,1.0531468E0,-2.1445936E1,6.311736E0,2.707222E-1,1.0945805E0,6.63953E1,9.012044E-2,-3.9684956E0,1.8457031E2,-1.1240114E-2,5.9842933E-3,-3.6206734E1,-1.0488914E0,-4.8661977E-1,-1.7678642E0,-5.288058E-1,-1.6906561E-1,-7.392197E-2,2.4010658E-1,1.7786047E0,7.0634156E-1,-7.69523E-1,3.494133E-1,-1.260694E0,-4.929125E-1,-2.8142872E-1,-4.7762807E-2],"split_indices":[48,48,39,49,21,8,0,36,40,0,0,0,50,0,3,10,48,6,0,0,3,0,0,1,0,4,54,51,52,0,0,0,0,0,0,0,0,0,0,0,0,0,0,0,0],"split_type":[0,0,0,0,0,0,0,0,0,0,0,0,0,0,0,0,0,0,0,0,0,0,0,0,0,0,0,0,0,0,0,0,0,0,0,0,0,0,0,0,0,0,0,0,0],"sum_hessian":[6.8E1,4.5E1,2.3E1,4E1,5E0,1.9E1,4E0,2.1E1,1.9E1,2E0,3E0,3E0,1.6E1,1E0,3E0,6E0,1.5E1,1.7E1,2E0,7E0,9E0,1E0,2E0,4E0,2E0,4E0,1.1E1,9E0,8E0,5E0,2E0,1E0,8E0,2E0,2E0,1E0,3E0,8E0,3E0,2E0,7E0,5E0,3E0,3E0,2E0],"tree_param":{"num_deleted":"0","num_feature":"59","num_nodes":"45","size_leaf_vector":"1"}},{"base_weights":[8.126204E-1,6.4478717E0,-3.048065E0,1.1851688E1,-1.5303257E0,-5.003351E0,1.0169305E1,3.537395E0,1.8149384E1,6.9835553E0,-9.825589E0,1.4770813E0,-8.300378E0,1.3981519E1,-4.445881E-1,8.3836955E-1,-2.830378E-1,3.93721E0,2.1210275E0,9.969759E-1,2.251463E-1,-1.3049265E0,-4.1455154E0,-2.0051796E0,1.0684029E0,-5.6986275E0,-1.602311E1,1.5640929E0,3.67194E-1,1.1962528E0,-2.1610794E0,4.7520448E-2,5.430611E-1,-4.720665E-1,-1.21003345E-1,-4.222411E0,1.4999802E0,-1.0720303E1,-1.0390123E0,-4.6228886E-1,-1.7378577E0,2.839241E-2,1.4057212E-1,-6.6746905E-2,-2.5741503E-1,-7.1837825E-1,-2.531552E-1,-1.2130738E-4,1.8755817E-1,-2.7481517E-1,-1.1300747E0,2.700106E-1,-9.1922754E-1],"categories":[],"categories_nodes":[],"categories_segments":[],"categories_sizes":[],"default_left":[0,0,0,0,0,0,0,0,0,0,0,0,0,0,0,0,0,0,0,0,0,0,0,0,0,0,0,0,0,0,0,0,0,0,0,0,0,0,0,0,0,0,0,0,0,0,0,0,0,0,0,0,0],"id":10,"left_children":[1,3,5,7,9,11,13,15,17,19,21,23,25,27,-1,-1,29,31,-1,-1,-1,-1,33,35,-1,37,39,-1,-1,41,43,-1,-1,-1,-1,45,47,49,51,-1,-1,-1,-1,-1,-1,-1,-1,-1,-1,-1,-1,-1,-1],"loss_changes":[1.6078365E3,1.3115183E3,1.1880051E3,8.7829395E2,9.86741E2,8.4554065E2,3.964574E2,1.690076E2,3.5151025E2,7.64704E1,7.40791E1,4.702773E2,4.3109863E2,2.8106628E1,0E0,0E0,1.9254213E1,1.2929832E1,0E0,0E0,0E0,0E0,1.0411987E0,9.18228E1,0E0,4.8024194E2,1.2376343E1,0E0,0E0,3.6529684E-1,1.327343E-1,0E0,0E0,0E0,0E0,1.6864716E1,2.8215275E0,1.52178955E1,3.9065225E2,0E0,0E0,0E0,0E0,0E0,0E0,0E0,0E0,0E0,0E0,0E0,0E0,0E0,0E0],"parents":[2147483647,0,0,1,1,2,2,3,3,4,4,5,5,6,6,7,7,8,8,9,9,10,10,11,11,12,12,13,13,16,16,17,17,22,22,23,23,25,25,26,26,29,29,30,30,35,35,36,36,37,37,38,38],"right_children":[2,4,6,8,10,12,14,16,18,20,22,24,26,28,-1,-1,30,32,-1,-1,-1,-1,34,36,-1,38,40,-1,-1,42,44,-1,-1,-1,-1,46,48,50,52,-1,-1,-1,-1,-1,-1,-1,-1,-1,-1,-1,-1,-1,-1],"split_conditions":[1.5922265E1,1.0175506E2,6.5308535E-1,1.2926868E1,5.8872004E0,-1.5182371E-4,9.69215E1,-3.1132023E0,2.894211E-1,1.7722359E1,8.529802E0,4.4638336E-2,5.332336E-1,8.332935E1,-4.445881E-1,8.3836955E-1,1.1992399E0,-4.3866543E1,2.1210275E0,9.969759E-1,2.251463E-1,-1.3049265E0,-4.589742E1,4.5506528E-1,1.0684029E0,9.0307575E-3,-7.380718E1,1.5640929E0,3.67194E-1,-2.9293308E1,-2.1445936E1,4.7520448E-2,5.430611E-1,-4.720665E-1,-1.21003345E-1,-9.925726E1,-1.7890371E1,-2.3635794E1,3.888546E1,-4.6228886E-1,-1.7378577E0,2.839241E-2,1.4057212E-1,-6.6746905E-2,-2.5741503E-1,-7.1837825E-1,-2.531552E-1,-1.2130738E-4,1.8755817E-1,-2.7481517E-1,-1.1300747E0,2.700106E-1,-9.1922754E-1],"split_indices":[14,1,32,41,22,53,1,12,29,0,7,56,40,1,0,0,7,0,0,0,0,0,0,36,0,53,0,0,0,0,0,0,0,0,0,0,4,4,14,0,0,0,0,0,0,0,0,0,0,0,0,0,0],"split_type":[0,0,0,0,0,0,0,0,0,0,0,0,0,0,0,0,0,0,0,0,0,0,0,0,0,0,0,0,0,0,0,0,0,0,0,0,0,0,0,0,0,0,0,0,0,0,0,0,0,0,0,0,0],"sum_hessian":[7.2E1,2.9E1,4.3E1,1.7E1,1.2E1,3.8E1,5E0,8E0,9E0,6E0,6E0,1.3E1,2.5E1,4E0,1E0,3E0,5E0,2E0,7E0,3E0,3E0,3E0,3E0,1E1,3E0,2E1,5E0,3E0,1E0,3E0,2E0,1E0,1E0,2E0,1E0,6E0,4E0,9E0,1.1E1,1E0,4E0,1E0,2E0,1E0,1E0,1E0,5E0,1E0,3E0,1E0,8E0,8E0,3E0],"tree_param":{"num_deleted":"0","num_feature":"59","num_nodes":"53","size_leaf_vector":"1"}},{"base_weights":[-1.5447708E-2,3.1807723E0,-7.5846295E0,-5.268946E0,6.7781253E0,3.6876385E0,-1.3070879E1,6.177681E0,-7.691524E0,-1.3873221E0,1.1121327E1,9.64458E-1,-6.2405396E-1,-1.4214187E1,-4.5217934E-1,1.7006187E-1,7.565903E-1,-1.2561512E0,-9.697076E0,-7.4056444E0,2.5475445E0,2.310579E0,7.840262E0,7.3888904E-1,-1.778979E-1,-1.657836E0,-8.0615073E-1,4.514427E-2,-1.97583E-1,-1.1323404E0,-4.833315E-1,-1.7627716E-1,-8.37567E-1,-4.6999168E-1,4.254313E0,4.0160155E0,1.4819419E1,1.1094856E-1,-1.1520386E-4,4.918378E-1,1.7294337E-1,6.7912185E-1,-1.7825525E-1,1.6614712E0,2.9214785E-1],"categories":[],"categories_nodes":[],"categories_segments":[],"categories_sizes":[],"default_left":[0,0,0,0,0,0,0,0,0,0,0,0,0,0,0,0,0,0,0,0,0,0,0,0,0,0,0,0,0,0,0,0,0,0,0,0,0,0,0,0,0,0,0,0,0],"id":11,"left_children":[1,3,5,7,9,11,13,15,17,19,21,-1,23,25,-1,-1,-1,27,29,31,33,-1,35,37,-1,-1,-1,-1,-1,-1,-1,-1,-1,-1,39,41,43,-1,-1,-1,-1,-1,-1,-1,-1],"loss_changes":[1.5482695E3,1.4035615E3,1.2232076E3,4.3574066E2,1.1502828E3,1.8581021E2,6.2791504E1,5.7787476E0,1.4269666E2,3.0304175E2,6.4460254E2,0E0,9.184953E0,2.6359375E1,0E0,0E0,0E0,5.807651E0,1.646106E1,1.2604248E1,1.1895282E2,0E0,4.2090527E2,8.2404816E-1,0E0,0E0,0E0,0E0,0E0,0E0,0E0,0E0,0E0,0E0,3.2307816E0,2.2130432E2,7.962207E1,0E0,0E0,0E0,0E0,0E0,0E0,0E0,0E0],"parents":[2147483647,0,0,1,1,2,2,3,3,4,4,5,5,6,6,7,7,8,8,9,9,10,10,12,12,13,13,17,17,18,18,19,19,20,20,22,22,23,23,34,34,35,35,36,36],"right_children":[2,4,6,8,10,12,14,16,18,20,22,-1,24,26,-1,-1,-1,28,30,32,34,-1,36,38,-1,-1,-1,-1,-1,-1,-1,-1,-1,-1,40,42,44,-1,-1,-1,-1,-1,-1,-1,-1],"split_conditions":[1.5215731E-2,3.278648E-1,-1.0658803E-3,1.9120424E3,1.121486E1,2.3801401E1,1.3406592E1,-3.716957E1,-9.499872E-3,2.73931E-3,-1.3301919E1,9.64458E-1,6.693162E1,1.1757914E1,-4.5217934E-1,1.7006187E-1,7.565903E-1,-4.3866543E1,3.1082284E-1,5.73568E1,-2.1119682E1,2.310579E0,1.8250914E1,-1.3402304E2,-1.778979E-1,-1.657836E0,-8.0615073E-1,4.514427E-2,-1.97583E-1,-1.1323404E0,-4.833315E-1,-1.7627716E-1,-8.37567E-1,-4.6999168E-1,7.584629E0,5.39887E0,7.0203648E0,1.1094856E-1,-1.1520386E-4,4.918378E-1,1.7294337E-1,6.7912185E-1,-1.7825525E-1,1.6614712E0,2.9214785E-1],"split_indices":[48,38,53,55,3,3,4,0,49,53,6,0,1,42,0,0,0,0,39,1,4,0,15,0,0,0,0,0,0,0,0,0,0,0,3,21,0,0,0,0,0,0,0,0,0],"split_type":[0,0,0,0,0,0,0,0,0,0,0,0,0,0,0,0,0,0,0,0,0,0,0,0,0,0,0,0,0,0,0,0,0,0,0,0,0,0,0,0,0,0,0,0,0],"sum_hessian":[6.2E1,4.4E1,1.8E1,1.3E1,3.1E1,6E0,1.2E1,2E0,1.1E1,1.1E1,2E1,2E0,4E0,1E1,2E0,1E0,1E0,3E0,8E0,4E0,7E0,3E0,1.7E1,2E0,2E0,6E0,4E0,1E0,2E0,5E0,3E0,1E0,3E0,1E0,6E0,1.2E1,5E0,1E0,1E0,4E0,2E0,8E0,4E0,4E0,1E0],"tree_param":{"num_deleted":"0","num_feature":"59","num_nodes":"45","size_leaf_vector":"1"}},{"base_weights":[4.9612945E-1,-9.434599E0,2.7352352E0,-1.4797339E-1,-1.0877599E1,5.9023194E0,-4.3187265E0,-1.2938142E0,-6.229426E-1,1.2955971E0,1.0692993E1,4.6337876E0,-7.4297915E0,7.5129566E0,-2.6301317E0,2.0647692E1,5.275979E0,4.052162E-2,5.5896264E-1,-1.4211367E0,-2.8367178E0,1.1354182E0,2.9373857E-1,-7.6834135E0,2.7988832E0,8.0324525E-1,2.49472E0,-2.1036682E0,8.789563E0,-6.6591926E0,1.5531006E0,-1.7062111E-1,-8.3952457E-1,7.228976E-1,-4.1894913E-2,1.3271688E-1,-4.8332825E-1,1.1519002E0,2.4980164E-1,-7.309465E-1,-2.0290528E-1,-6.281815E-2,3.2166824E-1],"categories":[],"categories_nodes":[],"categories_segments":[],"categories_sizes":[],"default_left":[0,0,0,0,0,0,0,0,0,0,0,0,0,0,0,0,0,0,0,0,0,0,0,0,0,0,0,0,0,0,0,0,0,0,0,0,0,0,0,0,0,0,0],"id":12,"left_children":[1,3,5,-1,7,9,11,-1,-1,13,15,17,19,21,23,25,27,-1,-1,-1,29,-1,-1,31,33,-1,-1,35,37,39,41,-1,-1,-1,-1,-1,-1,-1,-1,-1,-1,-1,-1],"loss_changes":[1.4489067E3,1.2165039E2,1.2095366E3,0E0,1.518042E1,8.027107E2,5.0790952E2,0E0,0E0,5.0791342E2,8.617085E2,1.7944153E1,3.646139E2,1.0725476E2,3.7815143E2,1.25048584E2,3.5556747E2,0E0,0E0,0E0,1.6136215E2,0E0,0E0,1.545929E1,1.0281564E2,0E0,0E0,5.323889E1,1.2577673E2,2.2296143E-1,2.0164364E1,0E0,0E0,0E0,0E0,0E0,0E0,0E0,0E0,0E0,0E0,0E0,0E0],"parents":[2147483647,0,0,1,1,2,2,4,4,5,5,6,6,9,9,10,10,11,11,12,12,13,13,14,14,15,15,16,16,20,20,23,23,24,24,27,27,28,28,29,29,30,30],"right_children":[2,4,6,-1,8,10,12,-1,-1,14,16,18,20,22,24,26,28,-1,-1,-1,30,-1,-1,32,34,-1,-1,36,38,40,42,-1,-1,-1,-1,-1,-1,-1,-1,-1,-1,-1,-1],"split_conditions":[9.7955525E-2,-4.1116753E0,2.240096E1,-1.4797339E-1,5.904044E0,4.6451157E3,5.095688E0,-1.2938142E0,-6.229426E-1,5.8213377E0,5.2835815E3,-4.6980793E1,1.3959747E1,3.4564096E-1,1.1625858E-1,-2.4656599E1,9.291491E0,4.052162E-2,5.5896264E-1,-1.4211367E0,7.697409E0,1.1354182E0,2.9373857E-1,-1.078611E1,2.203911E3,8.0324525E-1,2.49472E0,-2.9678674E0,9.126339E0,3.759755E0,-1.8440474E1,-1.7062111E-1,-8.3952457E-1,7.228976E-1,-4.1894913E-2,1.3271688E-1,-4.8332825E-1,1.1519002E0,2.4980164E-1,-7.309465E-1,-2.0290528E-1,-6.281815E-2,3.2166824E-1],"split_indices":[58,5,14,0,7,28,20,0,0,22,28,0,43,57,26,2,16,0,0,0,17,0,0,5,27,0,0,8,24,5,2,0,0,0,0,0,0,0,0,0,0,0,0],"split_type":[0,0,0,0,0,0,0,0,0,0,0,0,0,0,0,0,0,0,0,0,0,0,0,0,0,0,0,0,0,0,0,0,0,0,0,0,0,0,0,0,0,0,0],"sum_hessian":[6.3E1,1.1E1,5.2E1,2E0,9E0,3.6E1,1.6E1,5E0,4E0,1.9E1,1.7E1,4E0,1.2E1,7E0,1.2E1,5E0,1.2E1,1E0,3E0,4E0,8E0,3E0,4E0,6E0,6E0,2E0,3E0,4E0,8E0,4E0,4E0,1E0,5E0,2E0,4E0,2E0,2E0,5E0,3E0,3E0,1E0,2E0,2E0],"tree_param":{"num_deleted":"0","num_feature":"59","num_nodes":"43","size_leaf_vector":"1"}},{"base_weights":[1.0472021E0,-7.6525598E0,2.7999833E0,-8.770732E0,1.7645799E-1,-4.8296413E-1,7.597132E0,-9.897097E-1,-2.8435147E-1,2.0050054E0,-7.3403277E0,-1.9376373E-1,1.3005734E1,-4.325734E0,5.2386317E0,1.610035E-1,-8.660378E-1,-2.334628E0,5.579796E-1,1.7564957E1,2.197986E0,3.1577122E0,-6.9149632E0,-4.1402035E0,7.544111E0,-4.5980072E-1,-5.306074E-1,9.7489625E-1,2.1867962E0,4.7382608E-1,3.1894836E-1,4.286751E-1,4.4981766E-2,-1.6139679E-1,-7.529468E-1,-4.8337427E-1,-1.0297928E-1,4.2856312E-1,1.117448E0,5.0983936E-2,-1.07208066E-1,3.03154E-3,6.8042375E-2],"categories":[],"categories_nodes":[],"categories_segments":[],"categories_sizes":[],"default_left":[0,0,0,0,0,0,0,0,0,0,0,0,0,0,0,0,0,0,0,0,0,0,0,0,0,0,0,0,0,0,0,0,0,0,0,0,0,0,0,0,0,0,0],"id":13,"left_children":[1,3,5,7,-1,9,11,-1,-1,13,15,17,19,21,23,-1,-1,25,-1,27,29,31,33,35,37,39,-1,-1,-1,41,-1,-1,-1,-1,-1,-1,-1,-1,-1,-1,-1,-1,-1],"loss_changes":[9.973489E2,1.3130646E2,8.541037E2,3.8619507E1,0E0,5.777275E2,9.29553E2,0E0,0E0,5.344421E2,1.2027783E2,1.3663083E2,6.0196655E2,1.9622269E2,3.988202E2,0E0,0E0,4.2127842E1,0E0,8.950049E1,7.0362434E0,7.2436924E0,1.0650085E1,3.6510162E0,1.1772302E2,4.1087356E0,0E0,0E0,0E0,2.5425744E-1,0E0,0E0,0E0,0E0,0E0,0E0,0E0,0E0,0E0,0E0,0E0,0E0,0E0],"parents":[2147483647,0,0,1,1,2,2,3,3,5,5,6,6,9,9,10,10,11,11,12,12,13,13,14,14,17,17,19,19,20,20,21,21,22,22,23,23,24,24,25,25,29,29],"right_children":[2,4,6,8,-1,10,12,-1,-1,14,16,18,20,22,24,-1,-1,26,-1,28,30,32,34,36,38,40,-1,-1,-1,42,-1,-1,-1,-1,-1,-1,-1,-1,-1,-1,-1,-1,-1],"split_conditions":[-6.6590675E1,2.3961306E1,2.170125E1,1.0597885E1,1.7645799E-1,6.07273E-1,1.25652E1,-9.897097E-1,-2.8435147E-1,3.5669264E-1,4.864596E0,8.037674E0,1.7630724E1,-4.3866543E1,-4.322966E1,1.610035E-1,-8.660378E-1,-1.8737825E1,5.579796E-1,3.9619288E-1,-3.089111E1,-4.83357E1,-6.441376E1,-4.3607594E1,1.3709116E1,-1.9828639E0,-5.306074E-1,9.7489625E-1,2.1867962E0,-2.6978615E1,3.1894836E-1,4.286751E-1,4.4981766E-2,-1.6139679E-1,-7.529468E-1,-4.8337427E-1,-1.0297928E-1,4.2856312E-1,1.117448E0,5.0983936E-2,-1.07208066E-1,3.03154E-3,6.8042375E-2],"split_indices":[0,5,3,20,0,35,41,0,0,39,20,19,45,0,2,0,0,0,0,37,2,0,2,2,41,10,0,0,0,0,0,0,0,0,0,0,0,0,0,0,0,0,0],"split_type":[0,0,0,0,0,0,0,0,0,0,0,0,0,0,0,0,0,0,0,0,0,0,0,0,0,0,0,0,0,0,0,0,0,0,0,0,0,0,0,0,0,0,0],"sum_hessian":[6.3E1,1E1,5.3E1,9E0,1E0,3.2E1,2.1E1,7E0,2E0,2.4E1,8E0,9E0,1.2E1,8E0,1.6E1,1E0,7E0,7E0,2E0,8E0,4E0,2E0,6E0,3E0,1.3E1,5E0,2E0,4E0,4E0,2E0,2E0,1E0,1E0,1E0,5E0,2E0,1E0,8E0,5E0,2E0,3E0,1E0,1E0],"tree_param":{"num_deleted":"0","num_feature":"59","num_nodes":"43","size_leaf_vector":"1"}},{"base_weights":[-1.24349175E-2,2.1487525E0,-7.305665E0,1.0691497E0,2.0145614E0,2.384615E0,-9.725315E0,-2.9885492E0,3.4959626E0,5.4502374E-1,-4.540049E-1,-4.6789985E0,-1.33823E1,4.999443E0,-5.2980127E0,6.604812E0,-3.322174E0,-7.098084E-2,2.8800964E-3,1.5643196E-1,-5.9802717E-1,-3.1283417E-1,-1.4569904E0,6.80324E-1,1.5291648E-1,-8.011745E0,-6.6439277E-1,-2.3298493E-1,8.056611E0,6.413887E-1,-6.198397E0,-9.1850084E-1,-2.2124623E-1,-4.3510994E-1,1.6805099E-1,-1.1842245E-1,7.9591624E-2,8.730637E-1,1.5515976E-1,-9.187984E-1,-1.9691315E-1],"categories":[],"categories_nodes":[],"categories_segments":[],"categories_sizes":[],"default_left":[0,0,0,0,0,0,0,0,0,0,0,0,0,0,0,0,0,0,0,0,0,0,0,0,0,0,0,0,0,0,0,0,0,0,0,0,0,0,0,0,0],"id":14,"left_children":[1,3,5,7,-1,9,11,13,15,-1,17,19,21,23,25,27,29,-1,-1,-1,-1,-1,-1,-1,-1,31,33,35,37,-1,39,-1,-1,-1,-1,-1,-1,-1,-1,-1,-1],"loss_changes":[1.1032786E3,1.0276521E3,3.9834454E2,5.225062E2,0E0,3.728298E1,1.7729028E2,3.954466E2,7.2142896E2,0E0,3.9095336E-1,6.6224884E1,3.9663696E1,2.0895126E1,1.9586752E2,2.3020032E2,3.4778976E2,0E0,0E0,0E0,0E0,0E0,0E0,0E0,0E0,4.77193E1,6.782684E1,5.8362E0,6.976001E1,0E0,9.570145E1,0E0,0E0,0E0,0E0,0E0,0E0,0E0,0E0,0E0,0E0],"parents":[2147483647,0,0,1,1,2,2,3,3,5,5,6,6,7,7,8,8,10,10,11,11,12,12,13,13,14,14,15,15,16,16,25,25,26,26,27,27,28,28,30,30],"right_children":[2,4,6,8,-1,10,12,14,16,-1,18,20,22,24,26,28,30,-1,-1,-1,-1,-1,-1,-1,-1,32,34,36,38,-1,40,-1,-1,-1,-1,-1,-1,-1,-1,-1,-1],"split_conditions":[1.5215731E-2,7.1703386E-1,-4.264733E-3,3.621374E-1,2.0145614E0,-4.2768818E1,5.120776E-1,2.0401111E3,6.193217E-1,5.4502374E-1,-3.6206734E1,-4.9290547E0,6.311736E0,-5.359453E1,1.1015314E1,5.3471203E0,1.566172E1,-7.098084E-2,2.8800964E-3,1.5643196E-1,-5.9802717E-1,-3.1283417E-1,-1.4569904E0,6.80324E-1,1.5291648E-1,1.0448488E1,-7.501542E1,-3.860313E1,5.9228206E-1,6.413887E-1,4.6959644E1,-9.1850084E-1,-2.2124623E-1,-4.3510994E-1,1.6805099E-1,-1.1842245E-1,7.9591624E-2,8.730637E-1,1.5515976E-1,-9.187984E-1,-1.9691315E-1],"split_indices":[48,36,53,39,0,0,31,55,31,0,0,3,3,2,21,17,46,0,0,0,0,0,0,0,0,20,0,2,36,0,47,0,0,0,0,0,0,0,0,0,0],"split_type":[0,0,0,0,0,0,0,0,0,0,0,0,0,0,0,0,0,0,0,0,0,0,0,0,0,0,0,0,0,0,0,0,0,0,0,0,0,0,0,0,0],"sum_hessian":[6.8E1,5.3E1,1.5E1,5.1E1,2E0,3E0,1.2E1,1.9E1,3.2E1,1E0,2E0,6E0,6E0,4E0,1.5E1,2.2E1,1E1,1E0,1E0,1E0,5E0,1E0,5E0,2E0,2E0,9E0,6E0,4E0,1.8E1,2E0,8E0,7E0,2E0,2E0,4E0,2E0,2E0,1.6E1,2E0,4E0,4E0],"tree_param":{"num_deleted":"0","num_feature":"59","num_nodes":"41","size_leaf_vector":"1"}},{"base_weights":[7.727941E-2,4.023897E0,-2.884616E0,7.680945E-1,1.1535427E1,-4.067674E0,8.7798274E-1,4.1479297E0,-8.936121E0,-1.6823425E0,1.5552267E1,-1.2534134E0,-7.304839E0,-1.0814686E0,6.416968E0,-1.1153501E0,-3.000908E-1,-2.1653481E-1,-3.5816576E-2,6.940359E-1,1.760896E0,-7.2579193E-1,1.0766146E0,2.2400998E-1,-8.726838E0,-2.9697534E-1,6.051121E-1,9.867844E-1,2.5423648E0,-4.2221584E0,3.8689804E0,-1.6041594E0,-1.0373827E1,-8.222199E-3,8.6163074E-2,1.0229798E-1,3.426159E-1,-4.7635078E-1,-7.577057E-2,-1.0611166E-1,5.0824594E-1,-2.1571186E-1,2.735901E-3,-1.1899403E0,-5.858142E-1],"categories":[],"categories_nodes":[],"categories_segments":[],"categories_sizes":[],"default_left":[0,0,0,0,0,0,0,0,0,0,0,0,0,0,0,0,0,0,0,0,0,0,0,0,0,0,0,0,0,0,0,0,0,0,0,0,0,0,0,0,0,0,0,0,0],"id":15,"left_children":[1,3,5,7,9,11,-1,13,15,17,19,21,23,25,27,-1,-1,-1,-1,-1,-1,-1,29,-1,31,-1,33,-1,35,37,39,41,43,-1,-1,-1,-1,-1,-1,-1,-1,-1,-1,-1,-1],"loss_changes":[8.1818085E2,7.2482153E2,5.877021E2,7.586368E2,5.0400732E2,3.2792242E2,0E0,2.0865674E2,4.5493073E1,1.1431999E0,1.7717285E0,3.01618E2,2.5028821E2,2.09055E1,1.3536163E2,0E0,0E0,0E0,0E0,0E0,0E0,0E0,2.5307326E2,0E0,1.5932336E2,0E0,7.761011E-1,0E0,5.8948746E0,7.643547E0,7.1201324E1,3.6676683E0,1.2959839E1,0E0,0E0,0E0,0E0,0E0,0E0,0E0,0E0,0E0,0E0,0E0,0E0],"parents":[2147483647,0,0,1,1,2,2,3,3,4,4,5,5,7,7,8,8,9,9,10,10,11,11,12,12,13,13,14,14,22,22,24,24,26,26,28,28,29,29,30,30,31,31,32,32],"right_children":[2,4,6,8,10,12,-1,14,16,18,20,22,24,26,28,-1,-1,-1,-1,-1,-1,-1,30,-1,32,-1,34,-1,36,38,40,42,44,-1,-1,-1,-1,-1,-1,-1,-1,-1,-1,-1,-1],"split_conditions":[1.5922265E1,2.922442E-3,3.201417E-2,1.258821E-2,-3.860313E1,6.0463976E-3,8.7798274E-1,7.514024E1,6.085633E-1,-4.536815E1,8.014761E1,1.7415073E1,-1.1126E1,-3.9684956E0,1.456244E-3,-1.1153501E0,-3.000908E-1,-2.1653481E-1,-3.5816576E-2,6.940359E-1,1.760896E0,-7.2579193E-1,2.9511306E-1,2.2400998E-1,-4.264733E-3,-2.9697534E-1,-2.9293308E1,9.867844E-1,3.771066E-1,7.612745E1,1.0272573E1,-3.6206734E1,1.1757914E1,-8.222199E-3,8.6163074E-2,1.0229798E-1,3.426159E-1,-4.7635078E-1,-7.577057E-2,-1.0611166E-1,5.0824594E-1,-2.1571186E-1,2.735901E-3,-1.1899403E0,-5.858142E-1],"split_indices":[14,48,52,50,2,48,0,1,6,0,1,14,8,4,51,0,0,0,0,0,0,0,36,0,53,0,0,0,35,1,15,0,42,0,0,0,0,0,0,0,0,0,0,0,0],"split_type":[0,0,0,0,0,0,0,0,0,0,0,0,0,0,0,0,0,0,0,0,0,0,0,0,0,0,0,0,0,0,0,0,0,0,0,0,0,0,0,0,0,0,0,0,0],"sum_hessian":[6.8E1,2.9E1,3.9E1,2.1E1,8E0,3.6E1,3E0,1.6E1,5E0,2E0,6E0,2E1,1.6E1,5E0,1.1E1,3E0,2E0,1E0,1E0,2E0,4E0,5E0,1.5E1,2E0,1.4E1,2E0,3E0,5E0,6E0,5E0,1E1,3E0,1.1E1,1E0,2E0,3E0,3E0,4E0,1E0,2E0,8E0,2E0,1E0,7E0,4E0],"tree_param":{"num_deleted":"0","num_feature":"59","num_nodes":"45","size_leaf_vector":"1"}},{"base_weights":[5.292433E-1,-5.8663373E0,2.476273E0,-2.9768987E0,-8.022484E0,9.3330514E-1,1.3378659E1,-3.3049542E-1,-3.4025576E-2,-8.548056E-1,-2.1717396E-1,2.5907028E0,-6.848822E0,1.5363732E-1,1.5439843E0,4.6178764E-1,8.292595E0,2.0967789E-1,-1.0180153E0,-2.0064123E0,4.4586797E0,1.0178055E1,5.0050354E-1,-4.664919E-1,1.1704186E-1,-2.9491503E-2,7.2171503E-1,1.7620431E-1,1.1128622E0,1.9352265E-1,-1.1844712E-1],"categories":[],"categories_nodes":[],"categories_segments":[],"categories_sizes":[],"default_left":[0,0,0,0,0,0,0,0,0,0,0,0,0,0,0,0,0,0,0,0,0,0,0,0,0,0,0,0,0,0,0],"id":16,"left_children":[1,3,5,7,9,11,13,-1,-1,-1,-1,15,17,-1,-1,19,21,-1,-1,23,25,27,29,-1,-1,-1,-1,-1,-1,-1,-1],"loss_changes":[7.9902704E2,6.95686E1,8.117932E2,5.7951813E0,6.0357666E0,5.852587E2,1.2273328E2,0E0,0E0,0E0,0E0,4.453078E2,2.5975153E2,0E0,0E0,2.8516956E2,1.4182263E2,0E0,0E0,1.5748117E2,1.4636758E2,4.4390747E1,9.544635E0,0E0,0E0,0E0,0E0,0E0,0E0,0E0,0E0],"parents":[2147483647,0,0,1,1,2,2,3,3,4,4,5,5,6,6,11,11,12,12,15,15,16,16,19,19,20,20,21,21,22,22],"right_children":[2,4,6,8,10,12,14,-1,-1,-1,-1,16,18,-1,-1,20,22,-1,-1,24,26,28,30,-1,-1,-1,-1,-1,-1,-1,-1],"split_conditions":[1.0198349E-1,7.9515977E0,7.1703386E-1,2.2844328E1,9.545368E1,1.258821E-2,-1.3402304E2,-3.3049542E-1,-3.4025576E-2,-8.548056E-1,-2.1717396E-1,4.739183E0,-2.7346067E-2,1.5363732E-1,1.5439843E0,1.9110954E1,8.436893E0,2.0967789E-1,-1.0180153E0,2.3867942E-3,3.6905655E-1,-4.5110504E1,-5.76865E0,-4.664919E-1,1.1704186E-1,-2.9491503E-2,7.2171503E-1,1.7620431E-1,1.1128622E0,1.9352265E-1,-1.1844712E-1],"split_indices":[58,17,36,3,1,50,0,0,0,0,0,11,5,0,0,0,11,0,0,53,33,0,0,0,0,0,0,0,0,0,0],"split_type":[0,0,0,0,0,0,0,0,0,0,0,0,0,0,0,0,0,0,0,0,0,0,0,0,0,0,0,0,0,0,0],"sum_hessian":[6.2E1,1.4E1,4.8E1,7E0,7E0,4.3E1,5E0,6E0,1E0,6E0,1E0,3.6E1,7E0,1E0,4E0,2.7E1,9E0,2E0,5E0,1.7E1,1E1,7E0,2E0,9E0,8E0,4E0,6E0,1E0,6E0,1E0,1E0],"tree_param":{"num_deleted":"0","num_feature":"59","num_nodes":"31","size_leaf_vector":"1"}},{"base_weights":[6.2076863E-2,5.8512783E0,-1.3590872E0,1.5609639E0,1.3628067E0,1.9015349E0,-4.5693727E0,4.209571E0,-3.959732E-1,-3.382329E0,3.9200037E0,-1.0214327E1,-2.0829227E0,1.0385666E-1,5.270259E-1,7.525406E-2,-4.0805306E0,-2.0405717E0,5.5376835E0,-3.2011518E-1,-1.3782E0,-6.208346E-1,-2.938919E-1,-4.7540918E-1,-1.5977517E-1,-4.596695E-1,1.1957423E-1,-4.622694E-1,6.5232215E0,3.3060353E0,-2.424459E0,1.481336E-1,7.184947E-1,2.3363113E-2,3.8737902E-1,-5.429161E-1,4.835358E-2],"categories":[],"categories_nodes":[],"categories_segments":[],"categories_sizes":[],"default_left":[0,0,0,0,0,0,0,0,0,0,0,0,0,0,0,0,0,0,0,0,0,0,0,0,0,0,0,0,0,0,0,0,0,0,0,0,0],"id":17,"left_children":[1,3,5,-1,7,9,11,13,-1,15,17,19,21,-1,-1,-1,23,25,27,-1,-1,-1,29,-1,-1,-1,-1,-1,31,33,35,-1,-1,-1,-1,-1,-1],"loss_changes":[5.4273376E2,5.481287E2,5.6346783E2,0E0,1.681889E2,3.0122226E2,3.5769354E2,1.8070595E1,0E0,2.6166542E1,2.0414606E2,1.5604742E2,1.4578561E2,0E0,0E0,0E0,4.1102676E0,4.685855E1,1.9036987E2,0E0,0E0,0E0,1.2306365E2,0E0,0E0,0E0,0E0,0E0,3.9401855E1,9.561195E0,9.0001785E1,0E0,0E0,0E0,0E0,0E0,0E0],"parents":[2147483647,0,0,1,1,2,2,4,4,5,5,6,6,7,7,9,9,10,10,11,11,12,12,16,16,17,17,18,18,22,22,28,28,29,29,30,30],"right_children":[2,4,6,-1,8,10,12,14,-1,16,18,20,22,-1,-1,-1,24,26,28,-1,-1,-1,30,-1,-1,-1,-1,-1,32,34,36,-1,-1,-1,-1,-1,-1],"split_conditions":[1.4185001E1,9.938402E1,-2.6776677E-3,1.5609639E0,6.574914E-1,2.933716E-1,1.03359375E2,8.993862E0,-3.959732E-1,-1.5624636E1,9.4159804E-2,7.599954E1,-1.1240114E-2,1.0385666E-1,5.270259E-1,7.525406E-2,-7.003683E1,1.1604049E2,4.08712E0,-3.2011518E-1,-1.3782E0,-6.208346E-1,3.7890625E-1,-4.7540918E-1,-1.5977517E-1,-4.596695E-1,1.1957423E-1,-4.622694E-1,-1.6808765E-2,-3.3853085E1,1.7377787E1,1.481336E-1,7.184947E-1,2.3363113E-2,3.8737902E-1,-5.429161E-1,4.835358E-2],"split_indices":[44,54,48,0,34,36,54,15,0,8,26,54,51,0,0,0,0,1,15,0,0,0,37,0,0,0,0,0,48,2,3,0,0,0,0,0,0],"split_type":[0,0,0,0,0,0,0,0,0,0,0,0,0,0,0,0,0,0,0,0,0,0,0,0,0,0,0,0,0,0,0,0,0,0,0,0,0],"sum_hessian":[6.4E1,1.2E1,5.2E1,3E0,9E0,2.6E1,2.6E1,6E0,3E0,7E0,1.9E1,7E0,1.9E1,2E0,4E0,1E0,6E0,4E0,1.5E1,3E0,4E0,5E0,1.4E1,4E0,2E0,2E0,2E0,1E0,1.4E1,5E0,9E0,2E0,1.2E1,1E0,4E0,4E0,5E0],"tree_param":{"num_deleted":"0","num_feature":"59","num_nodes":"37","size_leaf_vector":"1"}},{"base_weights":[-8.230176E-1,-5.482235E0,8.7974226E-1,5.859388E-1,-7.385077E0,-7.2310257E-1,8.7839985E0,1.0065359E-1,-8.75352E0,3.4806538E0,-2.4376533E0,1.0580475E0,-1.895668E-1,-9.69238E0,-2.3931935E-1,7.8488636E-1,1.1524879E0,1.5568798E0,-4.3130374E0,-1.0638213E0,-3.6240883E0,2.0340379E-1,4.044037E-2,-2.2948008E0,3.5354288E0,1.6701705E0,-5.913225E0,-4.5953733E-1,-8.407593E-2,-7.548752E-2,4.2798806E-2,-3.4741975E-2,-2.8281212E-1,1.01698816E-1,4.3394074E-1,-1.8929622E-1,4.67658E-1,-6.4159787E-1,8.140373E-2],"categories":[],"categories_nodes":[],"categories_segments":[],"categories_sizes":[],"default_left":[0,0,0,0,0,0,0,0,0,0,0,0,0,0,0,0,0,0,0,0,0,0,0,0,0,0,0,0,0,0,0,0,0,0,0,0,0,0,0],"id":18,"left_children":[1,3,5,-1,7,9,11,-1,13,15,17,-1,-1,19,-1,-1,21,23,25,-1,27,-1,29,31,33,35,37,-1,-1,-1,-1,-1,-1,-1,-1,-1,-1,-1,-1],"loss_changes":[5.0463522E2,4.1015445E2,6.0180865E2,0E0,1.8106244E2,2.9678677E2,1.7354321E2,0E0,5.4433167E1,1.1299327E2,2.2396211E2,0E0,0E0,2.4581665E1,0E0,0E0,8.740671E0,8.432049E1,2.0136115E2,0E0,4.2466125E0,0E0,1.864191E0,3.17177E0,9.760284E0,6.2413765E1,5.933734E1,0E0,0E0,0E0,0E0,0E0,0E0,0E0,0E0,0E0,0E0,0E0,0E0],"parents":[2147483647,0,0,1,1,2,2,4,4,5,5,6,6,8,8,9,9,10,10,13,13,16,16,17,17,18,18,20,20,22,22,23,23,24,24,25,25,26,26],"right_children":[2,4,6,-1,8,10,12,-1,14,16,18,-1,-1,20,-1,-1,22,24,26,-1,28,-1,30,32,34,36,38,-1,-1,-1,-1,-1,-1,-1,-1,-1,-1,-1,-1],"split_conditions":[1.057781E1,-3.891243E1,6.376517E-1,5.859388E-1,1.5216793E1,-8.193688E-1,5.159246E0,1.0065359E-1,6.593127E-1,9.938402E1,1.1594216E1,1.0580475E0,-1.895668E-1,7.488265E0,-2.3931935E-1,7.8488636E-1,3.4154177E-1,6.152172E0,-8.094872E0,-1.0638213E0,1.2632368E1,2.0340379E-1,5.73568E1,5.5349655E1,4.497235E0,-6.4501038E0,1.1651002E2,-4.5953733E-1,-8.407593E-2,-7.548752E-2,4.2798806E-2,-3.4741975E-2,-2.8281212E-1,1.01698816E-1,4.3394074E-1,-1.8929622E-1,4.67658E-1,-6.4159787E-1,8.140373E-2],"split_indices":[42,2,32,0,45,11,6,0,37,54,42,0,0,8,0,0,32,18,8,0,1,0,1,1,25,6,1,0,0,0,0,0,0,0,0,0,0,0,0],"split_type":[0,0,0,0,0,0,0,0,0,0,0,0,0,0,0,0,0,0,0,0,0,0,0,0,0,0,0,0,0,0,0,0,0,0,0,0,0,0,0],"sum_hessian":[6.2E1,1.6E1,4.6E1,2E0,1.4E1,3.9E1,7E0,2E0,1.2E1,1.1E1,2.8E1,6E0,1E0,1E1,2E0,3E0,8E0,9E0,1.9E1,8E0,2E0,4E0,4E0,3E0,6E0,4E0,1.5E1,1E0,1E0,1E0,3E0,1E0,2E0,2E0,4E0,2E0,2E0,1.4E1,1E0],"tree_param":{"num_deleted":"0","num_feature":"59","num_nodes":"39","size_leaf_vector":"1"}},{"base_weights":[2.0781653E-1,1.2154537E1,-6.056529E-1,-7.171326E-2,1.6684138E0,3.8825943E0,-2.3659914E0,1.6681173E0,8.863716E-1,7.770968E-1,-4.6600986E0,5.9988064E-1,-2.3097E-1,-3.4069812E0,4.129788E0,2.254551E0,-5.705485E0,-2.1586514E-1,9.035579E-1,2.9266357E-1,-6.42523E-1,5.189092E0,-3.2316265E-1,1.0420074E-1,2.9460907E-1,-6.957635E0,-2.0283597E0,1.3203913E-1,-7.987213E-2,-1.6358947E-2,6.513622E-2,1.3444342E-1,5.982203E-1,-3.557478E-1,-8.6419815E-1,-2.4332695E-1,2.0055009E-2],"categories":[],"categories_nodes":[],"categories_segments":[],"categories_sizes":[],"default_left":[0,0,0,0,0,0,0,0,0,0,0,0,0,0,0,0,0,0,0,0,0,0,0,0,0,0,0,0,0,0,0,0,0,0,0,0,0],"id":19,"left_children":[1,3,5,-1,-1,7,9,11,-1,13,15,-1,17,19,21,23,25,-1,27,29,-1,31,-1,-1,-1,33,35,-1,-1,-1,-1,-1,-1,-1,-1,-1,-1],"loss_changes":[6.0989557E2,2.4517883E2,4.7533542E2,0E0,0E0,1.7273416E2,3.136764E2,1.0830217E2,0E0,2.8060065E2,1.9357526E2,0E0,2.3820549E1,1.0237845E2,1.0254695E2,2.8423882E-1,8.718225E1,0E0,6.0215926E0,9.248425E-1,0E0,2.2449707E1,0E0,0E0,0E0,6.0889038E1,6.805546E0,0E0,0E0,0E0,0E0,0E0,0E0,0E0,0E0,0E0,0E0],"parents":[2147483647,0,0,1,1,2,2,5,5,6,6,7,7,9,9,10,10,12,12,13,13,14,14,15,15,16,16,18,18,19,19,21,21,25,25,26,26],"right_children":[2,4,6,-1,-1,8,10,12,-1,14,16,-1,18,20,22,24,26,-1,28,30,-1,32,-1,-1,-1,34,36,-1,-1,-1,-1,-1,-1,-1,-1,-1,-1],"split_conditions":[-1.3301919E1,-4.666373E1,-1.5182371E-4,-7.171326E-2,1.6684138E0,6.077217E-1,-4.207076E-3,4.338123E0,8.863716E-1,7.826761E0,4.864596E0,5.9988064E-1,-2.3584541E-2,1.4076805E1,3.5444244E1,7.5150175E0,9.80631E0,-2.1586514E-1,7.269578E0,-2.1445936E1,-6.42523E-1,-1.4398446E-2,-3.2316265E-1,1.0420074E-1,2.9460907E-1,6.0731916E0,-4.536815E1,1.3203913E-1,-7.987213E-2,-1.6358947E-2,6.513622E-2,1.3444342E-1,5.982203E-1,-3.557478E-1,-8.6419815E-1,-2.4332695E-1,2.0055009E-2],"split_indices":[6,2,53,0,0,33,52,24,0,16,20,0,51,14,0,4,20,0,7,0,0,52,0,0,0,19,0,0,0,0,0,0,0,0,0,0,0],"split_type":[0,0,0,0,0,0,0,0,0,0,0,0,0,0,0,0,0,0,0,0,0,0,0,0,0,0,0,0,0,0,0,0,0,0,0,0,0],"sum_hessian":[6.1E1,3E0,5.8E1,1E0,2E0,1.6E1,4.2E1,1.2E1,4E0,1.8E1,2.4E1,3E0,9E0,8E0,1E1,3E0,2.1E1,3E0,6E0,4E0,4E0,9E0,1E0,2E0,1E0,1.5E1,6E0,5E0,1E0,2E0,2E0,2E0,7E0,6E0,9E0,5E0,1E0],"tree_param":{"num_deleted":"0","num_feature":"59","num_nodes":"37","size_leaf_vector":"1"}},{"base_weights":[-1.4162527E-1,1.7367224E0,-3.59212E0,8.888723E0,2.2511399E-1,-1.0241795E1,-1.8378108E0,2.2699957E0,1.240596E0,1.476689E0,-6.904663E0,-1.6617718E-1,-1.1971358E0,4.091091E0,-3.0532439E0,3.952769E-1,-1.3891621E-1,-1.0350835E0,4.049349E0,-2.878985E-1,-8.197756E-1,-7.587852E-2,5.960645E-1,-6.9038343E-1,-1.459944E0,1.8651962E0,-2.6406565E0,8.0229324E-1,2.209559E0,-2.4623344E0,1.6616154E0,8.883607E-2,2.8715238E-1,-3.6780545E-1,1.6975556E-1,-2.2857819E-2,3.318573E-1,-2.795817E-2,-2.916326E-1,2.1170628E-1,1.4763641E-2],"categories":[],"categories_nodes":[],"categories_segments":[],"categories_sizes":[],"default_left":[0,0,0,0,0,0,0,0,0,0,0,0,0,0,0,0,0,0,0,0,0,0,0,0,0,0,0,0,0,0,0,0,0,0,0,0,0,0,0,0,0],"id":20,"left_children":[1,3,5,7,9,11,13,15,-1,17,19,-1,-1,21,23,-1,-1,25,27,-1,-1,-1,-1,-1,29,31,33,-1,35,37,39,-1,-1,-1,-1,-1,-1,-1,-1,-1,-1],"loss_changes":[4.599245E2,4.953061E2,2.728172E2,1.5807556E2,3.582106E2,5.430475E1,1.6382095E2,3.0121172E1,0E0,2.2389722E2,7.6322327E0,0E0,0E0,4.0791275E1,1.0035339E2,0E0,0E0,8.874433E1,1.0655237E2,0E0,0E0,0E0,0E0,0E0,4.789775E1,4.3301697E0,6.0249138E1,0E0,3.5909622E1,1.0085106E1,2.4455967E0,0E0,0E0,0E0,0E0,0E0,0E0,0E0,0E0,0E0,0E0],"parents":[2147483647,0,0,1,1,2,2,3,3,4,4,5,5,6,6,7,7,9,9,10,10,13,13,14,14,17,17,18,18,24,24,25,25,26,26,28,28,29,29,30,30],"right_children":[2,4,6,8,10,12,14,16,-1,18,20,-1,-1,22,24,-1,-1,26,28,-1,-1,-1,-1,-1,30,32,34,-1,36,38,40,-1,-1,-1,-1,-1,-1,-1,-1,-1,-1],"split_conditions":[8.601968E0,9.938402E1,9.938402E1,5.337984E0,1.316377E-2,-4.589742E1,4.755922E0,8.024387E0,1.240596E0,-2.958548E1,6.6007066E0,-1.6617718E-1,-1.1971358E0,-1.8737825E1,1.3293051E1,3.952769E-1,-1.3891621E-1,3.461372E-1,-1.5363301E-2,-2.878985E-1,-8.197756E-1,-7.587852E-2,5.960645E-1,-6.9038343E-1,3.2200842E0,-1.1661606E1,3.3919984E-1,8.0229324E-1,4.6782634E-1,3.8761273E-1,-3.716957E1,8.883607E-2,2.8715238E-1,-3.6780545E-1,1.6975556E-1,-2.2857819E-2,3.318573E-1,-2.795817E-2,-2.916326E-1,2.1170628E-1,1.4763641E-2],"split_indices":[20,54,54,24,50,0,23,0,0,2,20,0,0,0,43,0,0,31,49,0,0,0,0,0,8,0,57,0,36,29,0,0,0,0,0,0,0,0,0,0,0],"split_type":[0,0,0,0,0,0,0,0,0,0,0,0,0,0,0,0,0,0,0,0,0,0,0,0,0,0,0,0,0,0,0,0,0,0,0,0,0,0,0,0,0],"sum_hessian":[6.9E1,4.5E1,2.4E1,7E0,3.8E1,4E0,2E1,3E0,4E0,3.3E1,5E0,1E0,3E0,3E0,1.7E1,2E0,1E0,1.7E1,1.6E1,2E0,3E0,1E0,2E0,4E0,1.3E1,6E0,1.1E1,4E0,1.2E1,1E1,3E0,4E0,2E0,9E0,2E0,4E0,8E0,2E0,8E0,2E0,1E0],"tree_param":{"num_deleted":"0","num_feature":"59","num_nodes":"41","size_leaf_vector":"1"}},{"base_weights":[-3.1833883E-2,1.1220969E0,-5.2218695E0,5.303421E-2,1.15883045E1,-6.5483475E-1,-9.679765E0,-4.380486E0,1.4158344E0,1.367896E0,1.6128425E-1,1.5799814E-1,-1.8647575E0,-1.0461261E0,-2.8861427E-1,6.2749736E-2,-5.444833E0,4.5736675E0,-7.4838084E-1,-7.337227E-2,-2.3742066E-1,-6.649391E-1,-2.910396E-1,5.6381807E0,-1.918616E-1,2.2598825E0,-2.7039976E0,1.8546616E-1,6.966123E-1,-4.9466707E-2,5.113365E-1,1.3385563E-1,-3.8261825E-1],"categories":[],"categories_nodes":[],"categories_segments":[],"categories_sizes":[],"default_left":[0,0,0,0,0,0,0,0,0,0,0,0,0,0,0,0,0,0,0,0,0,0,0,0,0,0,0,0,0,0,0,0,0],"id":21,"left_children":[1,3,5,7,9,11,13,15,17,-1,-1,-1,19,-1,-1,-1,21,23,25,-1,-1,-1,-1,27,-1,29,31,-1,-1,-1,-1,-1,-1],"loss_changes":[3.951407E2,6.0359314E2,2.3797366E2,3.083022E2,8.221423E1,2.1873968E1,1.6624756E0,6.737933E1,2.6995786E2,0E0,0E0,0E0,1.1390152E0,0E0,0E0,0E0,1.1176422E1,1.2139545E2,1.4730295E2,0E0,0E0,0E0,0E0,5.742032E1,0E0,8.1130005E1,7.316896E1,0E0,0E0,0E0,0E0,0E0,0E0],"parents":[2147483647,0,0,1,1,2,2,3,3,4,4,5,5,6,6,7,7,8,8,12,12,16,16,17,17,18,18,23,23,25,25,26,26],"right_children":[2,4,6,8,10,12,14,16,18,-1,-1,-1,20,-1,-1,-1,22,24,26,-1,-1,-1,-1,28,-1,30,32,-1,-1,-1,-1,-1,-1],"split_conditions":[4.4949524E-2,7.27098E-1,5.508135E-1,2.9316205E-1,8.081284E0,-7.3240647E0,6.1916018E0,-1.1514426E1,4.721776E-1,1.367896E0,1.6128425E-1,1.5799814E-1,1.383142E1,-1.0461261E0,-2.8861427E-1,6.2749736E-2,2.8086936E-1,3.3479824E1,-3.1895552E0,-7.337227E-2,-2.3742066E-1,-6.649391E-1,-2.910396E-1,3.535294E-1,-1.918616E-1,-8.526383E-1,4.6349754E1,1.8546616E-1,6.966123E-1,-4.9466707E-2,5.113365E-1,1.3385563E-1,-3.8261825E-1],"split_indices":[51,36,40,37,4,8,9,12,37,0,0,0,3,0,0,0,39,14,10,0,0,0,0,39,0,9,47,0,0,0,0,0,0],"split_type":[0,0,0,0,0,0,0,0,0,0,0,0,0,0,0,0,0,0,0,0,0,0,0,0,0,0,0,0,0,0,0,0,0],"sum_hessian":[6.4E1,5.3E1,1.1E1,4.9E1,4E0,6E0,5E0,1.1E1,3.8E1,3E0,1E0,2E0,4E0,4E0,1E0,2E0,9E0,1.5E1,2.3E1,2E0,2E0,5E0,4E0,1.3E1,2E0,9E0,1.4E1,4E0,9E0,5E0,4E0,3E0,1.1E1],"tree_param":{"num_deleted":"0","num_feature":"59","num_nodes":"33","size_leaf_vector":"1"}},{"base_weights":[3.3800068E-1,-5.525655E0,1.4636534E0,-1.0046711E0,-3.4046745E0,5.613529E-1,1.0735309E1,-4.6068575E-2,-3.7150875E-1,1.2557418E0,-6.355929E0,1.5321998E-1,1.2653036E0,3.5027394E0,-4.1469586E-1,-7.2172445E-1,-1.4553337E-1,5.3654094E0,4.2302322E-1,-1.946326E0,2.2685468E0,7.653511E-1,2.3108204E-1,1.898881E-1,-3.161653E-1,-3.0380726E-1,2.907242E-1,5.7519484E-1,-5.4367553E-2],"categories":[],"categories_nodes":[],"categories_segments":[],"categories_sizes":[],"default_left":[0,0,0,0,0,0,0,0,0,0,0,0,0,0,0,0,0,0,0,0,0,0,0,0,0,0,0,0,0],"id":22,"left_children":[1,3,5,-1,7,9,11,-1,-1,13,15,-1,-1,17,19,-1,-1,21,23,25,27,-1,-1,-1,-1,-1,-1,-1,-1],"loss_changes":[4.5031714E2,7.127402E1,4.7082544E2,0E0,6.513176E0,2.6255545E2,6.885828E1,0E0,0E0,1.8537259E2,1.0601273E1,0E0,0E0,1.1819672E2,1.23597664E2,0E0,0E0,7.317383E1,5.3617855E1,1.0951087E2,1.1088429E2,0E0,0E0,0E0,0E0,0E0,0E0,0E0,0E0],"parents":[2147483647,0,0,1,1,2,2,4,4,5,5,6,6,9,9,10,10,13,13,14,14,17,17,18,18,19,19,20,20],"right_children":[2,4,6,-1,8,10,12,-1,-1,14,16,-1,-1,18,20,-1,-1,22,24,26,28,-1,-1,-1,-1,-1,-1,-1,-1],"split_conditions":[9.7955525E-2,1.9879261E3,7.27098E-1,-1.0046711E0,-1.5327187E1,1.4240376E1,-1.3402304E2,-4.6068575E-2,-3.7150875E-1,5.834641E0,8.9658745E1,1.5321998E-1,1.2653036E0,2.5382988E-2,7.816932E-2,-7.2172445E-1,-1.4553337E-1,5.524606E-1,7.1908146E-2,2.5816465E3,5.0462317E0,7.653511E-1,2.3108204E-1,1.898881E-1,-3.161653E-1,-3.0380726E-1,2.907242E-1,5.7519484E-1,-5.4367553E-2],"split_indices":[58,55,36,0,6,5,0,0,0,22,1,0,0,51,8,0,0,30,56,55,5,0,0,0,0,0,0,0,0],"split_type":[0,0,0,0,0,0,0,0,0,0,0,0,0,0,0,0,0,0,0,0,0,0,0,0,0,0,0,0,0],"sum_hessian":[6.6E1,1E1,5.6E1,2E0,8E0,5.2E1,4E0,1E0,7E0,4.8E1,4E0,1E0,3E0,2E1,2.8E1,3E0,1E0,1.2E1,8E0,1.8E1,1E1,6E0,6E0,6E0,2E0,1.5E1,3E0,4E0,6E0],"tree_param":{"num_deleted":"0","num_feature":"59","num_nodes":"29","size_leaf_vector":"1"}},{"base_weights":[8.974838E-2,6.5731835E-1,-7.193097E0,-3.929067E-1,5.241036E0,-8.163868E-1,-1.6550064E-1,1.1577584E0,-8.4575427E-1,-5.9810716E-1,8.235371E0,1.3371371E0,-2.764559E0,7.7840425E-2,-1.7752495E-1,9.4213456E-1,3.1182966E-1,3.10315E0,-1.19262E0,-1.438546E0,-6.5370913E0,-2.9471207E-2,4.3655282E-1,8.914959E-2,-3.871858E-1,5.2970003E-2,-3.8534114E-1,-8.111803E-1,1.4555894E-1],"categories":[],"categories_nodes":[],"categories_segments":[],"categories_sizes":[],"default_left":[0,0,0,0,0,0,0,0,0,0,0,0,0,0,0,0,0,0,0,0,0,0,0,0,0,0,0,0,0],"id":23,"left_children":[1,3,5,7,9,-1,-1,-1,11,13,15,17,19,-1,-1,-1,-1,21,23,25,27,-1,-1,-1,-1,-1,-1,-1,-1],"loss_changes":[2.858078E2,3.101511E2,1.3369843E1,2.9709457E2,2.1473776E2,0E0,0E0,0E0,2.215008E2,9.48361E0,1.9171265E1,1.1539047E2,1.3066403E2,0E0,0E0,0E0,0E0,6.5627365E1,6.487402E1,1.06608215E2,9.9910645E1,0E0,0E0,0E0,0E0,0E0,0E0,0E0,0E0],"parents":[2147483647,0,0,1,1,2,2,3,3,4,4,8,8,9,9,10,10,11,11,12,12,17,17,18,18,19,19,20,20],"right_children":[2,4,6,8,10,-1,-1,-1,12,14,16,18,20,-1,-1,-1,-1,22,24,26,28,-1,-1,-1,-1,-1,-1,-1,-1],"split_conditions":[7.538418E-1,6.607734E-1,-3.3842146E-2,-1.4630424E1,-1.3316019E-2,-8.163868E-1,-1.6550064E-1,1.1577584E0,-2.1670666E-3,-4.235355E0,-7.8686647E0,1.456244E-3,-2.0259252E-1,7.7840425E-2,-1.7752495E-1,9.4213456E-1,3.1182966E-1,4.53327E1,4.5788306E-1,4.7014898E-1,-1.5097178E1,-2.9471207E-2,4.3655282E-1,8.914959E-2,-3.871858E-1,5.2970003E-2,-3.8534114E-1,-8.111803E-1,1.4555894E-1],"split_indices":[32,32,0,12,48,0,0,0,48,8,2,51,12,0,0,0,0,47,33,36,2,0,0,0,0,0,0,0,0],"split_type":[0,0,0,0,0,0,0,0,0,0,0,0,0,0,0,0,0,0,0,0,0,0,0,0,0,0,0,0,0],"sum_hessian":[6.7E1,6.3E1,4E0,5.2E1,1.1E1,3E0,1E0,1E0,5.1E1,4E0,7E0,2.4E1,2.7E1,2E0,2E0,5E0,2E0,1.4E1,1E1,2.1E1,6E0,4E0,1E1,6E0,4E0,1.2E1,9E0,5E0,1E0],"tree_param":{"num_deleted":"0","num_feature":"59","num_nodes":"29","size_leaf_vector":"1"}},{"base_weights":[2.4029324E-2,9.312431E-1,-4.349276E0,5.44455E0,-2.4498057E-1,-6.784439E-1,-8.618586E0,9.0119773E-1,1.0716333E0,1.6446683E0,-1.5437768E0,2.5541458E-1,-2.4823089E0,-9.697987E-1,-2.1504918E-1,2.456546E0,-1.9914488E-1,-3.4359998E-1,2.4945018E0,-2.470721E0,2.8435335E-1,-3.199524E-1,-9.3765765E-2,2.6925279E-2,2.9360563E-1,3.2589204E0,1.60997E-1,-2.9449606E0,3.744156E-1,1.0719483E-1,4.218413E-1,-2.9136658E-2,3.4692954E-2,-3.1678315E-2,-3.5447213E-1],"categories":[],"categories_nodes":[],"categories_segments":[],"categories_sizes":[],"default_left":[0,0,0,0,0,0,0,0,0,0,0,0,0,0,0,0,0,0,0,0,0,0,0,0,0,0,0,0,0,0,0,0,0,0,0],"id":24,"left_children":[1,3,5,7,9,11,13,15,-1,17,19,-1,21,-1,-1,23,-1,-1,25,27,-1,-1,-1,-1,-1,29,31,33,-1,-1,-1,-1,-1,-1,-1],"loss_changes":[2.5400418E2,2.8269266E2,1.665439E2,2.5380975E2,1.0807256E2,4.7158268E1,1.4052887E1,3.6385597E1,0E0,8.62901E1,1.1276216E2,0E0,2.539175E0,0E0,0E0,4.453602E0,0E0,0E0,2.8015717E1,7.5867905E1,0E0,0E0,0E0,0E0,0E0,2.0658676E1,5.216293E-1,3.1978897E1,0E0,0E0,0E0,0E0,0E0,0E0,0E0],"parents":[2147483647,0,0,1,1,2,2,3,3,4,4,5,5,6,6,7,7,9,9,10,10,12,12,15,15,18,18,19,19,25,25,26,26,27,27],"right_children":[2,4,6,8,10,12,14,16,-1,18,20,-1,22,-1,-1,24,-1,-1,26,28,-1,-1,-1,-1,-1,30,32,34,-1,-1,-1,-1,-1,-1,-1],"split_conditions":[4.4949524E-2,1.4185001E1,5.611242E-1,2.2844328E1,3.7683105E-1,8.560866E0,3.4580894E1,1.6992062E1,1.0716333E0,-9.925726E1,-8.45552E0,2.5541458E-1,6.560756E1,-9.697987E-1,-2.1504918E-1,-1.7120024E0,-1.9914488E-1,-3.4359998E-1,1.5016526E-2,7.1853056E0,2.8435335E-1,-3.199524E-1,-9.3765765E-2,2.6925279E-2,2.9360563E-1,-1.0674494E-2,-5.1166733E1,1.9685614E3,3.744156E-1,1.0719483E-1,4.218413E-1,-2.9136658E-2,3.4692954E-2,-3.1678315E-2,-3.5447213E-1],"split_indices":[51,44,39,3,31,18,0,3,0,0,2,0,1,0,0,7,0,0,53,12,0,0,0,0,0,48,2,55,0,0,0,0,0,0,0],"split_type":[0,0,0,0,0,0,0,0,0,0,0,0,0,0,0,0,0,0,0,0,0,0,0,0,0,0,0,0,0,0,0,0,0,0,0],"sum_hessian":[6.2E1,5.2E1,1E1,1E1,4.2E1,6E0,4E0,6E0,4E0,1.7E1,2.5E1,2E0,4E0,3E0,1E0,4E0,2E0,2E0,1.5E1,2.1E1,4E0,2E0,2E0,1E0,3E0,1.1E1,4E0,2E1,1E0,4E0,7E0,1E0,3E0,4E0,1.6E1],"tree_param":{"num_deleted":"0","num_feature":"59","num_nodes":"35","size_leaf_vector":"1"}},{"base_weights":[-2.7858099E-2,1.5805669E0,-2.7288978E0,-1.0178294E0,4.2274313E0,-7.9512467E0,-1.3555338E0,8.895836E-1,-4.467E0,6.627414E0,-5.00968E-1,-8.317127E-2,-9.523202E-1,-2.8975167E0,4.2413075E-2,1.5935962E0,-2.4576657E-1,-5.3685584E0,-1.1748835E-1,9.329709E0,2.5923038E0,1.2593597E0,-2.5761356E0,-1.0964088E0,-3.9155206E-1,-2.766926E-1,1.7929482E0,4.6167076E-1,3.312343E-1,-5.853197E-1,-1.472683E-1,1.8318176E-1,1.0139148E0,-1.4114724E-1,3.4948452E0,5.6409645E-1,2.0202065E-1,-6.099358E-2,-3.0282238E-1,-2.456665E-4,-1.3692828E-1,6.000069E-1,2.835888E-1,7.9237275E-2,-1.0919724E-1,1.0526314E-1,3.7727615E-1,1.5647888E-2,6.4780936E-2,3.9209365E-3,7.304039E-2],"categories":[],"categories_nodes":[],"categories_segments":[],"categories_sizes":[],"default_left":[0,0,0,0,0,0,0,0,0,0,0,0,0,0,0,0,0,0,0,0,0,0,0,0,0,0,0,0,0,0,0,0,0,0,0,0,0,0,0,0,0,0,0,0,0,0,0,0,0,0,0],"id":25,"left_children":[1,3,5,7,9,11,13,15,17,19,21,-1,-1,23,25,27,-1,29,-1,31,33,35,37,39,-1,-1,41,43,-1,-1,-1,-1,-1,-1,45,47,-1,-1,-1,-1,-1,49,-1,-1,-1,-1,-1,-1,-1,-1,-1],"loss_changes":[2.9104492E2,2.931621E2,1.6852647E2,1.4871161E2,2.416297E2,4.8037354E1,4.53907E1,3.9264114E1,1.743686E1,1.2847144E2,3.2468082E1,0E0,0E0,1.4042328E1,6.3975113E1,2.3762196E1,0E0,2.7086334E0,0E0,2.9979614E1,3.0227886E1,1.505353E0,1.708561E0,1.4891906E0,0E0,0E0,8.251774E0,5.489384E0,0E0,0E0,0E0,0E0,0E0,0E0,1.0105896E-1,3.512287E-2,0E0,0E0,0E0,0E0,0E0,3.3699298E-1,0E0,0E0,0E0,0E0,0E0,0E0,0E0,0E0,0E0],"parents":[2147483647,0,0,1,1,2,2,3,3,4,4,5,5,6,6,7,7,8,8,9,9,10,10,13,13,14,14,15,15,17,17,19,19,20,20,21,21,22,22,23,23,26,26,27,27,34,34,35,35,41,41],"right_children":[2,4,6,8,10,12,14,16,18,20,22,-1,-1,24,26,28,-1,30,-1,32,34,36,38,40,-1,-1,42,44,-1,-1,-1,-1,-1,-1,46,48,-1,-1,-1,-1,-1,50,-1,-1,-1,-1,-1,-1,-1,-1,-1],"split_conditions":[8.797671E0,1.3427186E1,9.938402E1,-3.3768535E0,1.2539716E1,-4.589742E1,3.278648E-1,1.1811201E-2,1.522961E1,1.7725779E1,1.800392E1,-8.317127E-2,-9.523202E-1,2.791534E3,-9.215302E0,1.1186078E1,-2.4576657E-1,1.7951214E1,-1.1748835E-1,-9.058757E0,-2.8599029E0,-2.5630005E1,-1.5327187E1,-4.9290547E0,-3.9155206E-1,-2.766926E-1,1.1888546E1,4.1784854E0,3.312343E-1,-5.853197E-1,-1.472683E-1,1.8318176E-1,1.0139148E0,-1.4114724E-1,-1.1000435E1,-4.3866543E1,2.0202065E-1,-6.099358E-2,-3.0282238E-1,-2.456665E-4,-1.3692828E-1,-3.6206734E1,2.835888E-1,7.9237275E-2,-1.0919724E-1,1.0526314E-1,3.7727615E-1,1.5647888E-2,6.4780936E-2,3.9209365E-3,7.304039E-2],"split_indices":[18,41,54,8,42,0,38,48,7,14,43,0,0,27,6,15,0,2,0,10,10,0,6,3,0,0,18,6,0,0,0,0,0,0,6,0,0,0,0,0,0,0,0,0,0,0,0,0,0,0,0],"split_type":[0,0,0,0,0,0,0,0,0,0,0,0,0,0,0,0,0,0,0,0,0,0,0,0,0,0,0,0,0,0,0,0,0,0,0,0,0,0,0,0,0,0,0,0,0,0,0,0,0,0,0],"sum_hessian":[6.5E1,4.1E1,2.4E1,2.1E1,2E1,4E0,2E1,1.4E1,7E0,1.3E1,7E0,1E0,3E0,9E0,1.1E1,1.2E1,2E0,5E0,2E0,7E0,6E0,4E0,3E0,4E0,5E0,4E0,7E0,8E0,4E0,4E0,1E0,1E0,6E0,1E0,5E0,3E0,1E0,1E0,2E0,1E0,3E0,4E0,3E0,7E0,1E0,1E0,4E0,1E0,2E0,1E0,3E0],"tree_param":{"num_deleted":"0","num_feature":"59","num_nodes":"51","size_leaf_vector":"1"}},{"base_weights":[1.4216065E-2,-3.0838127E0,9.4334036E-1,5.873413E-1,-5.596509E0,6.301191E0,2.0799722E-1,-9.296936E-1,2.9199526E-1,-1.8817139E-1,-7.1148667E0,9.8374605E-1,2.0736904E0,1.3404658E0,-1.7360961E0,-2.462307E-1,6.9036484E-2,-7.9012685E-2,5.0786972E-2,-7.7172416E-1,-1.7503071E-1,3.867073E-2,2.5071156E-1,-1.7918619E0,2.2355018E0,1.2003878E-1,-3.3993313E0,2.917328E-2,-2.9952621E-2,-2.1400574E-1,1.4865494E-2,4.363382E0,5.5590874E-1,-1.7814665E-1,1.3677025E0,-4.137708E0,-5.4334134E-2,5.162798E-1,7.771454E-2,-2.2990608E-1,1.9278027E-1,-2.3345948E-4,1.642177E-1,-2.194232E-1,-5.046758E-1],"categories":[],"categories_nodes":[],"categories_segments":[],"categories_sizes":[],"default_left":[0,0,0,0,0,0,0,0,0,0,0,0,0,0,0,0,0,0,0,0,0,0,0,0,0,0,0,0,0,0,0,0,0,0,0,0,0,0,0,0,0,0,0,0,0],"id":26,"left_children":[1,3,5,7,9,11,13,15,-1,17,19,-1,21,23,25,-1,27,-1,-1,-1,-1,-1,-1,29,31,33,35,-1,-1,-1,-1,37,39,-1,41,43,-1,-1,-1,-1,-1,-1,-1,-1,-1],"loss_changes":[1.8713013E2,1.416545E2,1.956823E2,2.748523E1,7.256732E1,6.929765E1,1.01400276E2,7.8233247E0,0E0,1.6582386E0,9.112762E0,0E0,1.955204E0,8.530855E1,5.2890266E1,0E0,4.1569182E-1,0E0,0E0,0E0,0E0,0E0,0E0,5.047882E0,7.977572E1,2.3788467E1,1.6730988E1,0E0,0E0,0E0,0E0,2.4656693E1,5.9266148E1,0E0,2.2600737E0,1.293251E0,0E0,0E0,0E0,0E0,0E0,0E0,0E0,0E0,0E0],"parents":[2147483647,0,0,1,1,2,2,3,3,4,4,5,5,6,6,7,7,9,9,10,10,12,12,13,13,14,14,16,16,23,23,24,24,25,25,26,26,31,31,32,32,34,34,35,35],"right_children":[2,4,6,8,10,12,14,16,-1,18,20,-1,22,24,26,-1,28,-1,-1,-1,-1,-1,-1,30,32,34,36,-1,-1,-1,-1,38,40,-1,42,44,-1,-1,-1,-1,-1,-1,-1,-1,-1],"split_conditions":[1.057781E1,3.380667E0,1.3726971E1,1.2103726E1,3.9944092E3,2.7247984E0,1.2137259E1,-1.1034429E1,2.9199526E-1,-4.589742E1,3.4580894E1,9.8374605E-1,-4.6980793E1,-3.7822933E1,-3.3456981E-3,-2.462307E-1,7.514024E1,-7.9012685E-2,5.0786972E-2,-7.7172416E-1,-1.7503071E-1,3.867073E-2,2.5071156E-1,4.1541713E-1,1.4565613E1,2.7456206E-1,4.1090977E1,2.917328E-2,-2.9952621E-2,-2.1400574E-1,1.4865494E-2,5.806918E-1,1.06190726E-1,-1.7814665E-1,-1.3289128E1,8.486464E0,-5.4334134E-2,5.162798E-1,7.771454E-2,-2.2990608E-1,1.9278027E-1,-2.3345948E-4,1.642177E-1,-2.194232E-1,-5.046758E-1],"split_indices":[42,7,44,16,28,4,16,4,0,0,0,0,0,0,52,0,1,0,0,0,0,0,0,9,43,37,14,0,0,0,0,39,58,0,4,17,0,0,0,0,0,0,0,0,0],"split_type":[0,0,0,0,0,0,0,0,0,0,0,0,0,0,0,0,0,0,0,0,0,0,0,0,0,0,0,0,0,0,0,0,0,0,0,0,0,0,0,0,0,0,0,0,0],"sum_hessian":[6.3E1,1.4E1,4.9E1,6E0,8E0,5E0,4.4E1,4E0,2E0,2E0,6E0,2E0,3E0,2.8E1,1.6E1,1E0,3E0,1E0,1E0,5E0,1E0,1E0,2E0,6E0,2.2E1,8E0,8E0,2E0,1E0,5E0,1E0,9E0,1.3E1,3E0,5E0,6E0,2E0,7E0,2E0,4E0,9E0,1E0,4E0,3E0,3E0],"tree_param":{"num_deleted":"0","num_feature":"59","num_nodes":"45","size_leaf_vector":"1"}},{"base_weights":[3.7631878E-1,1.5789409E0,-1.8942777E0,7.989084E-1,7.659419E0,1.0963423E0,-3.458109E0,1.7228383E0,-3.9348705E0,1.3585396E-1,8.8950044E-1,2.9885254E0,-1.0151093E0,-1.9113868E0,-6.478621E-1,2.3819642E-1,3.686481E0,-1.2171621E0,-5.668861E-1,3.3576585E-2,3.567774E-1,-1.12661175E-1,-2.8454972E-2,-2.9351616E-1,-3.0250778E0,1.6629841E0,-1.8462965E0,5.3820972E0,-7.8117144E-1,-1.8720385E-1,3.7373353E-2,-7.770767E-2,4.4906998E-1,-3.5285187E-1,-2.2163392E-4,-4.1841507E-2,2.634541E-1,6.146145E-2,-3.1791878E-1,6.109967E-1,-9.482994E-2,-2.622572E-1,3.348217E-2,1.2632179E-2,5.4728318E-2],"categories":[],"categories_nodes":[],"categories_segments":[],"categories_sizes":[],"default_left":[0,0,0,0,0,0,0,0,0,0,0,0,0,0,0,0,0,0,0,0,0,0,0,0,0,0,0,0,0,0,0,0,0,0,0,0,0,0,0,0,0,0,0,0,0],"id":27,"left_children":[1,3,5,7,9,11,13,15,17,-1,-1,19,21,23,-1,25,27,29,-1,-1,-1,-1,-1,31,33,35,37,39,41,-1,-1,-1,43,-1,-1,-1,-1,-1,-1,-1,-1,-1,-1,-1,-1],"loss_changes":[1.8867647E2,2.0731451E2,1.1603509E2,1.8610002E2,2.6842133E1,3.8990955E1,6.2367126E1,1.011576E2,2.6087448E1,0E0,0E0,6.485096E0,8.6719036E-2,2.0733784E1,0E0,6.543952E1,1.1783571E2,4.8670034E0,0E0,0E0,0E0,0E0,0E0,2.503474E0,1.0644997E1,2.7390903E1,3.1475113E1,5.647882E1,1.1153046E1,0E0,0E0,0E0,2.5960684E-2,0E0,0E0,0E0,0E0,0E0,0E0,0E0,0E0,0E0,0E0,0E0,0E0],"parents":[2147483647,0,0,1,1,2,2,3,3,4,4,5,5,6,6,7,7,8,8,11,11,12,12,13,13,15,15,16,16,17,17,23,23,24,24,25,25,26,26,27,27,28,28,32,32],"right_children":[2,4,6,8,10,12,14,16,18,-1,-1,20,22,24,-1,26,28,30,-1,-1,-1,-1,-1,32,34,36,38,40,42,-1,-1,-1,44,-1,-1,-1,-1,-1,-1,-1,-1,-1,-1,-1,-1],"split_conditions":[8.797671E0,6.573769E-1,5.3580337E0,1.258821E-2,-1.3402304E2,9.87249E1,6.030061E-1,3.7360585E0,-6.0287E0,1.3585396E-1,8.8950044E-1,2.0006884E1,-4.315019E1,5.4881753E3,-6.478621E-1,-4.895952E0,8.436893E0,9.28552E1,-5.668861E-1,3.3576585E-2,3.567774E-1,-1.12661175E-1,-2.8454972E-2,1.383142E1,6.1006638E1,5.7102447E0,4.4338572E-1,9.055983E0,-1.4523923E2,-1.8720385E-1,3.7373353E-2,-7.770767E-2,-3.6206734E1,-3.5285187E-1,-2.2163392E-4,-4.1841507E-2,2.634541E-1,6.146145E-2,-3.1791878E-1,6.109967E-1,-9.482994E-2,-2.622572E-1,3.348217E-2,1.2632179E-2,5.4728318E-2],"split_indices":[18,36,25,50,0,1,31,11,9,0,0,1,0,28,0,10,11,1,0,0,0,0,0,3,1,17,31,0,0,0,0,0,0,0,0,0,0,0,0,0,0,0,0,0,0],"split_type":[0,0,0,0,0,0,0,0,0,0,0,0,0,0,0,0,0,0,0,0,0,0,0,0,0,0,0,0,0,0,0,0,0,0,0,0,0,0,0,0,0,0,0,0,0],"sum_hessian":[6.7E1,4.4E1,2.3E1,4E1,4E0,8E0,1.5E1,3.4E1,6E0,1E0,3E0,4E0,4E0,1.1E1,4E0,2E1,1.4E1,3E0,3E0,1E0,3E0,3E0,1E0,5E0,6E0,1.2E1,8E0,1E1,4E0,2E0,1E0,3E0,2E0,5E0,1E0,4E0,8E0,3E0,5E0,9E0,1E0,1E0,3E0,1E0,1E0],"tree_param":{"num_deleted":"0","num_feature":"59","num_nodes":"45","size_leaf_vector":"1"}},{"base_weights":[-1.1162422E-1,1.2088326E0,-2.3077347E0,7.4927006E0,4.968244E-1,-6.6405745E0,-1.1091379E0,1.0805601E0,-1.2229996E-1,-1.8031108E0,1.6729178E0,-6.942902E-2,-7.9535735E-1,1.4731789E0,-1.6514984E0,3.446117E-1,-5.308389E-1,2.368159E0,-2.5691387E-1,3.1897735E-2,1.751587E-1,-7.8071433E-1,-3.117817E-1,1.0375544E0,-7.809553E-1,-5.374472E-1,4.0668945E0,-1.6645005E-1,-1.3075876E-1,2.2114055E-2,1.3904762E-1,-8.740488E-3,-1.4308034E-1,1.4091127E-1,-2.3765175E-1,1.9803175E-1,5.006069E-1,3.6582183E-2,-7.1879484E-2],"categories":[],"categories_nodes":[],"categories_segments":[],"categories_sizes":[],"default_left":[0,0,0,0,0,0,0,0,0,0,0,0,0,0,0,0,0,0,0,0,0,0,0,0,0,0,0,0,0,0,0,0,0,0,0,0,0,0,0],"id":28,"left_children":[1,3,5,7,9,11,13,-1,-1,15,17,-1,-1,19,21,23,-1,25,-1,-1,-1,27,-1,29,31,33,35,-1,37,-1,-1,-1,-1,-1,-1,-1,-1,-1,-1],"loss_changes":[1.8548141E2,1.7524405E2,1.1727457E2,1.287122E2,1.0309918E2,3.351523E1,3.0443888E1,0E0,0E0,9.969809E1,7.981544E1,0E0,0E0,7.2663975E-1,1.9272266E1,7.8298645E0,0E0,1.1077459E2,0E0,0E0,0E0,6.6754117E0,0E0,1.4212904E0,1.6777501E0,3.5567524E1,1.7521622E1,0E0,2.5990093E0,0E0,0E0,0E0,0E0,0E0,0E0,0E0,0E0,0E0,0E0],"parents":[2147483647,0,0,1,1,2,2,3,3,4,4,5,5,6,6,9,9,10,10,13,13,14,14,15,15,17,17,21,21,23,23,24,24,25,25,26,26,28,28],"right_children":[2,4,6,8,10,12,14,-1,-1,16,18,-1,-1,20,22,24,-1,26,-1,-1,-1,28,-1,30,32,34,36,-1,38,-1,-1,-1,-1,-1,-1,-1,-1,-1,-1],"split_conditions":[8.797671E0,-1.3301919E1,9.938402E1,9.125524E1,7.859098E0,-4.589742E1,1.0765766E1,1.0805601E0,-1.2229996E-1,5.482442E0,6.7065254E-2,-6.942902E-2,-7.9535735E-1,2.0006884E1,4.0301226E-2,3.3567187E-1,-5.308389E-1,3.6752403E-1,-2.5691387E-1,3.1897735E-2,1.751587E-1,1.601316E1,-3.117817E-1,-6.239848E0,-2.9293308E1,6.357465E0,1.52453575E1,-1.6645005E-1,9.214535E0,2.2114055E-2,1.3904762E-1,-8.740488E-3,-1.4308034E-1,1.4091127E-1,-2.3765175E-1,1.9803175E-1,5.006069E-1,3.6582183E-2,-7.1879484E-2],"split_indices":[18,6,54,1,16,0,42,0,0,20,56,0,0,1,56,4,0,40,0,0,0,44,0,6,0,24,45,0,19,0,0,0,0,0,0,0,0,0,0],"split_type":[0,0,0,0,0,0,0,0,0,0,0,0,0,0,0,0,0,0,0,0,0,0,0,0,0,0,0,0,0,0,0,0,0,0,0,0,0,0,0],"sum_hessian":[6.2E1,3.9E1,2.3E1,3E0,3.6E1,4E0,1.9E1,2E0,1E0,1.2E1,2.4E1,1E0,3E0,3E0,1.6E1,8E0,4E0,2.1E1,3E0,1E0,2E0,1.1E1,5E0,5E0,3E0,8E0,1.3E1,4E0,7E0,2E0,3E0,2E0,1E0,4E0,4E0,5E0,8E0,4E0,3E0],"tree_param":{"num_deleted":"0","num_feature":"59","num_nodes":"39","size_leaf_vector":"1"}},{"base_weights":[-1.096908E-1,1.1034365E0,-1.9687902E0,-5.481535E-1,3.4277644E0,-1.2420608E0,-6.018652E-1,3.5676384E-1,-4.4201595E-1,7.916941E-1,2.0021331E0,4.0611297E-1,-2.7946913E0,1.4642816E0,-1.1186855E0,-4.6158728E-1,3.280152E0,-8.011826E-1,2.4980226E0,7.558238E-1,-3.508951E0,-5.9950256E-1,2.4481304E0,2.032369E-1,-2.4812553E0,-1.5408759E-1,4.632759E-1,7.3991394E-1,3.8227224E-1,-1.9535704E0,1.00606285E-1,-2.4448013E-2,3.244768E-1,1.0171509E-2,1.0320206E-1,-4.57441E-1,-2.24663E-1,-1.3317719E-1,3.3260092E-2,4.994863E-2,2.9335305E-1,5.2683514E-2,-9.0271E-3,-7.220459E-2,-2.7405462E-1,5.52269E-2,9.814835E-3,1.1964035E-2,9.902306E-2,-2.523508E-1,-9.2242174E-2,3.444128E-2,-2.5800452E-2],"categories":[],"categories_nodes":[],"categories_segments":[],"categories_sizes":[],"default_left":[0,0,0,0,0,0,0,0,0,0,0,0,0,0,0,0,0,0,0,0,0,0,0,0,0,0,0,0,0,0,0,0,0,0,0,0,0,0,0,0,0,0,0,0,0,0,0,0,0,0,0,0,0],"id":29,"left_children":[1,3,5,7,9,11,-1,13,-1,-1,15,17,19,21,23,25,27,29,31,33,35,37,39,41,43,-1,45,47,-1,49,51,-1,-1,-1,-1,-1,-1,-1,-1,-1,-1,-1,-1,-1,-1,-1,-1,-1,-1,-1,-1,-1,-1],"loss_changes":[1.6004514E2,1.6694894E2,7.493276E1,9.2676926E1,9.9347595E1,6.511008E1,0E0,3.7587967E1,0E0,0E0,4.8744293E1,3.483356E1,3.5620003E1,2.786353E1,1.8516396E1,6.7030153E0,1.0954094E1,9.549437E0,1.1033043E1,4.3701613E-1,4.517456E0,3.8557024E0,7.0475883E0,6.1742973E-1,3.019352E-1,0E0,7.5770974E-2,3.4732282E-1,0E0,2.3022652E-2,6.1344993E-1,0E0,0E0,0E0,0E0,0E0,0E0,0E0,0E0,0E0,0E0,0E0,0E0,0E0,0E0,0E0,0E0,0E0,0E0,0E0,0E0,0E0,0E0],"parents":[2147483647,0,0,1,1,2,2,3,3,4,4,5,5,7,7,10,10,11,11,12,12,13,13,14,14,15,15,16,16,17,17,18,18,19,19,20,20,21,21,22,22,23,23,24,24,26,26,27,27,29,29,30,30],"right_children":[2,4,6,8,10,12,-1,14,-1,-1,16,18,20,22,24,26,28,30,32,34,36,38,40,42,44,-1,46,48,-1,50,52,-1,-1,-1,-1,-1,-1,-1,-1,-1,-1,-1,-1,-1,-1,-1,-1,-1,-1,-1,-1,-1,-1],"split_conditions":[8.797671E0,6.6148615E0,7.27098E-1,1.258821E-2,1.412745E1,2.3388178E0,-6.018652E-1,5.8583937E0,-4.4201595E-1,7.916941E-1,6.820048E0,1.0368794E1,-7.9604554E0,-5.3146596E0,3.7627012E-1,-3.8478582E0,5.0915745E1,1.8055323E1,-8.483988E1,-3.6206734E1,8.454739E0,-9.704593E-1,3.8797194E-1,-7.535152E-1,-7.380718E1,-1.5408759E-1,-2.1445936E1,-4.575907E1,3.8227224E-1,-9.925726E1,-2.1214865E1,-2.4448013E-2,3.244768E-1,1.0171509E-2,1.0320206E-1,-4.57441E-1,-2.24663E-1,-1.3317719E-1,3.3260092E-2,4.994863E-2,2.9335305E-1,5.2683514E-2,-9.0271E-3,-7.220459E-2,-2.7405462E-1,5.52269E-2,9.814835E-3,1.1964035E-2,9.902306E-2,-2.523508E-1,-9.2242174E-2,3.444128E-2,-2.5800452E-2],"split_indices":[18,25,36,50,44,11,0,19,0,0,17,18,5,12,34,4,1,14,0,0,22,5,32,12,0,0,0,0,0,0,2,0,0,0,0,0,0,0,0,0,0,0,0,0,0,0,0,0,0,0,0,0,0],"split_type":[0,0,0,0,0,0,0,0,0,0,0,0,0,0,0,0,0,0,0,0,0,0,0,0,0,0,0,0,0,0,0,0,0,0,0,0,0,0,0,0,0,0,0,0,0,0,0,0,0,0,0,0,0],"sum_hessian":[6.9E1,4.2E1,2.7E1,2.5E1,1.7E1,2.4E1,3E0,2.1E1,4E0,3E0,1.4E1,1.2E1,1.2E1,1.2E1,9E0,5E0,9E0,8E0,4E0,2E0,1E1,4E0,8E0,5E0,4E0,2E0,3E0,2E0,7E0,3E0,5E0,1E0,3E0,1E0,1E0,4E0,6E0,2E0,2E0,2E0,6E0,2E0,3E0,1E0,3E0,2E0,1E0,1E0,1E0,1E0,2E0,3E0,2E0],"tree_param":{"num_deleted":"0","num_feature":"59","num_nodes":"53","size_leaf_vector":"1"}},{"base_weights":[-1.2752575E-1,-2.3262172E0,9.24748E-1,3.4250695E-1,-3.4165406E0,3.396939E0,-2.2532146E-3,-4.6659532E-1,2.5985605E-1,-5.5898994E-1,-2.407376E0,5.694618E-1,5.3352137E0,1.1866281E0,-3.8658357E0,2.2696877E-1,-1.23581566E-1,-2.842477E0,-8.265543E-2,-3.3444405E-1,1.584849E-1,1.6263403E-1,6.493495E-1,-6.12675E-1,2.546962E0,-5.482629E-1,-8.7838554E-1,3.076223E-2,-7.49588E-4,-8.4681705E-2,-2.9860827E-1,2.4032593E-3,-6.72493E-2,-1.3582011E0,3.5921797E-1,3.0151231E0,-2.003647E-1,-1.5413691E-1,5.552826E-2,-8.963776E-3,9.324265E-3,-1.6522269E-1,2.0297622E-2,6.0663987E-2,-9.041723E-3,1.9529724E-2,3.7664124E-1],"categories":[],"categories_nodes":[],"categories_segments":[],"categories_sizes":[],"default_left":[0,0,0,0,0,0,0,0,0,0,0,0,0,0,0,0,0,0,0,0,0,0,0,0,0,0,0,0,0,0,0,0,0,0,0,0,0,0,0,0,0,0,0,0,0,0,0],"id":30,"left_children":[1,3,5,7,9,11,13,15,-1,-1,17,19,21,23,25,27,-1,29,-1,31,-1,-1,-1,33,35,-1,37,-1,-1,-1,-1,39,-1,41,43,45,-1,-1,-1,-1,-1,-1,-1,-1,-1,-1,-1],"loss_changes":[1.5022318E2,6.227542E1,1.00843506E2,1.3990121E1,1.9442139E1,6.272696E1,1.5616756E2,3.4815135E0,0E0,0E0,5.9043427E0,6.03693E0,1.9510788E1,6.519944E1,3.3824844E1,7.79475E-2,0E0,5.0621033E-2,0E0,4.570997E-1,0E0,0E0,0E0,9.182749E0,3.799752E1,0E0,4.6578894E0,0E0,0E0,0E0,0E0,3.344091E-2,0E0,3.5485468E0,7.2234833E-1,2.8923477E1,0E0,0E0,0E0,0E0,0E0,0E0,0E0,0E0,0E0,0E0,0E0],"parents":[2147483647,0,0,1,1,2,2,3,3,4,4,5,5,6,6,7,7,10,10,11,11,12,12,13,13,14,14,15,15,17,17,19,19,23,23,24,24,26,26,31,31,33,33,34,34,35,35],"right_children":[2,4,6,8,10,12,14,16,-1,-1,18,20,22,24,26,28,-1,30,-1,32,-1,-1,-1,34,36,-1,38,-1,-1,-1,-1,40,-1,42,44,46,-1,-1,-1,-1,-1,-1,-1,-1,-1,-1,-1],"split_conditions":[1.16165265E-1,5.915877E0,4.3215413E0,3.0777775E1,2.0522349E3,3.3399866E0,6.07273E-1,2.3484335E0,2.5985605E-1,-5.5898994E-1,1.0448488E1,4.4776874E0,-3.1967493E1,3.6636025E-1,1.1029542E2,-2.1214865E1,-1.23581566E-1,-9.555904E0,-8.265543E-2,1.0634411E2,1.584849E-1,1.6263403E-1,6.493495E-1,9.977623E-3,3.3874355E1,-5.482629E-1,1.9110954E1,3.076223E-2,-7.49588E-4,-8.4681705E-2,-2.9860827E-1,-4.6980793E1,-6.72493E-2,4.6499405E0,1.0069187E1,8.993862E0,-2.003647E-1,-1.5413691E-1,5.552826E-2,-8.963776E-3,9.324265E-3,-1.6522269E-1,2.0297622E-2,6.0663987E-2,-9.041723E-3,1.9529724E-2,3.7664124E-1],"split_indices":[58,19,22,3,55,22,35,7,0,0,20,7,2,38,1,2,0,10,0,1,0,0,0,49,3,0,0,0,0,0,0,0,0,9,18,15,0,0,0,0,0,0,0,0,0,0,0],"split_type":[0,0,0,0,0,0,0,0,0,0,0,0,0,0,0,0,0,0,0,0,0,0,0,0,0,0,0,0,0,0,0,0,0,0,0,0,0,0,0,0,0,0,0,0,0,0,0],"sum_hessian":[6.3E1,2E1,4.3E1,6E0,1.4E1,1.1E1,3.2E1,5E0,1E0,3E0,1.1E1,5E0,6E0,2.5E1,7E0,3E0,2E0,8E0,3E0,3E0,2E0,2E0,4E0,1.1E1,1.4E1,4E0,3E0,2E0,1E0,1E0,7E0,2E0,1E0,6E0,5E0,1.3E1,1E0,2E0,1E0,1E0,1E0,5E0,1E0,3E0,2E0,3E0,1E1],"tree_param":{"num_deleted":"0","num_feature":"59","num_nodes":"47","size_leaf_vector":"1"}},{"base_weights":[5.746471E-2,6.3457046E0,-4.2713013E-1,8.545088E-1,-1.225914E-1,-9.743525E-2,-4.3639817E0,1.4875443E0,-9.667381E-1,-4.916745E-1,-1.0764637E-1,2.3436894E0,-6.8186516E-1,-3.0487926E0,-7.1862586E-2,9.7176194E-1,3.5941467E0,-1.660122E-1,4.668579E-1,-4.302389E0,-4.3327942E-1,4.026702E-1,-3.13836E-1,1.674394E-1,-3.2512665E-2,1.7670441E-2,4.0571094E-1,5.5930834E-2,9.475327E-3,-6.446152E-2,-4.7328407E-1,-9.746501E-2,2.525177E-2,8.774162E-2,-2.4277869E-1],"categories":[],"categories_nodes":[],"categories_segments":[],"categories_sizes":[],"default_left":[0,0,0,0,0,0,0,0,0,0,0,0,0,0,0,0,0,0,0,0,0,0,0,0,0,0,0,0,0,0,0,0,0,0,0],"id":31,"left_children":[1,3,5,-1,-1,7,9,11,13,-1,-1,15,17,19,21,23,25,-1,27,29,31,33,-1,-1,-1,-1,-1,-1,-1,-1,-1,-1,-1,-1,-1],"loss_changes":[2.129706E2,9.3740005E1,8.394218E1,0E0,0E0,8.5485535E1,3.7934036E0,4.2459324E1,7.430809E1,0E0,0E0,2.3955933E1,8.641264E0,3.7481445E1,4.3463177E1,8.745509E0,1.1940269E1,0E0,8.460873E-2,9.54509E0,2.102469E0,3.706763E1,0E0,0E0,0E0,0E0,0E0,0E0,0E0,0E0,0E0,0E0,0E0,0E0,0E0],"parents":[2147483647,0,0,1,1,2,2,5,5,6,6,7,7,8,8,11,11,12,12,13,13,14,14,15,15,16,16,18,18,19,19,20,20,21,21],"right_children":[2,4,6,-1,-1,8,10,12,14,-1,-1,16,18,20,22,24,26,-1,28,30,32,34,-1,-1,-1,-1,-1,-1,-1,-1,-1,-1,-1,-1,-1],"split_conditions":[-1.3301919E1,9.125524E1,7.489939E-1,8.545088E-1,-1.225914E-1,6.170887E0,-3.3842146E-2,5.639036E0,1.166779E2,-4.916745E-1,-1.0764637E-1,4.2382345E0,6.9645187E-3,8.519319E0,3.246854E3,1.4905773E1,-6.239848E0,-1.660122E-1,6.3691998E0,-7.380718E1,2.1863198E0,1.800392E1,-3.13836E-1,1.674394E-1,-3.2512665E-2,1.7670441E-2,4.0571094E-1,5.5930834E-2,9.475327E-3,-6.446152E-2,-4.7328407E-1,-9.746501E-2,2.525177E-2,8.774162E-2,-2.4277869E-1],"split_indices":[6,1,32,0,0,19,0,22,13,0,0,23,53,5,27,45,6,0,0,0,4,43,0,0,0,0,0,0,0,0,0,0,0,0,0],"split_type":[0,0,0,0,0,0,0,0,0,0,0,0,0,0,0,0,0,0,0,0,0,0,0,0,0,0,0,0,0,0,0,0,0,0,0],"sum_hessian":[6.8E1,4E0,6.4E1,3E0,1E0,6E1,4E0,2.1E1,3.9E1,3E0,1E0,1.5E1,6E0,1.1E1,2.8E1,8E0,7E0,3E0,3E0,7E0,4E0,2.5E1,3E0,5E0,3E0,1E0,6E0,2E0,1E0,1E0,6E0,2E0,2E0,2.2E1,3E0],"tree_param":{"num_deleted":"0","num_feature":"59","num_nodes":"35","size_leaf_vector":"1"}},{"base_weights":[1.7427601E-1,5.4363403E0,-7.126967E-2,3.492851E-2,7.805225E-1,1.1399779E0,-1.0186996E0,5.255292E-1,6.290024E-1,-2.17026E0,3.1740612E-1,-2.4874299E0,1.1576712E0,-3.4375608E0,-8.208719E-1,2.2824345E0,-1.1405605E0,-4.3437578E-2,-2.8920993E-1,2.895013E-1,5.142422E-1,-4.2114708E-1,-1.2238283E0,5.574921E-1,-1.6881502E-1,1.4658546E-1,3.5346267E-1,2.0147052E-3,-2.5120538E-1,-4.224329E-2,2.0465076E-1,-1.4470838E-1,-2.7703095E-2,6.518574E-2,9.001541E-3,-9.215037E-3,4.3139648E-2,-7.681227E-2,7.716484E-2],"categories":[],"categories_nodes":[],"categories_segments":[],"categories_sizes":[],"default_left":[0,0,0,0,0,0,0,0,0,0,0,0,0,0,0,0,0,0,0,0,0,0,0,0,0,0,0,0,0,0,0,0,0,0,0,0,0,0,0],"id":32,"left_children":[1,3,5,-1,-1,7,9,11,-1,13,15,17,19,21,23,25,27,-1,-1,-1,29,-1,31,33,-1,35,-1,37,-1,-1,-1,-1,-1,-1,-1,-1,-1,-1,-1],"loss_changes":[8.695661E1,3.3425705E1,7.5753494E1,0E0,0E0,8.846315E1,5.761729E1,5.430431E1,0E0,3.1379822E1,5.417228E1,2.8977852E0,2.4221954E1,1.1978172E1,1.4090808E1,2.0877827E1,1.7242435E1,0E0,0E0,0E0,2.6698742E1,0E0,4.4462395E-1,1.6189063E-1,0E0,3.1173176E-1,0E0,4.741786E0,0E0,0E0,0E0,0E0,0E0,0E0,0E0,0E0,0E0,0E0,0E0],"parents":[2147483647,0,0,1,1,2,2,5,5,6,6,7,7,9,9,10,10,11,11,12,12,13,13,14,14,15,15,16,16,20,20,22,22,23,23,25,25,27,27],"right_children":[2,4,6,-1,-1,8,10,12,-1,14,16,18,20,22,24,26,28,-1,-1,-1,30,-1,32,34,-1,36,-1,38,-1,-1,-1,-1,-1,-1,-1,-1,-1,-1,-1],"split_conditions":[-1.4630424E1,5.0915745E1,5.6369E0,3.492851E-2,7.805225E-1,5.428307E0,1.601316E1,8.98354E-1,6.290024E-1,9.545368E1,4.796762E3,-4.9290547E0,4.245474E0,1.5138657E2,1.7973995E1,-3.7960234E0,1.4448166E1,-4.3437578E-2,-2.8920993E-1,2.895013E-1,5.353385E-1,-4.2114708E-1,6.560756E1,1.1081691E2,-1.6881502E-1,7.8280464E1,3.5346267E-1,1.24431816E2,-2.5120538E-1,-4.224329E-2,2.0465076E-1,-1.4470838E-1,-2.7703095E-2,6.518574E-2,9.001541E-3,-9.215037E-3,4.3139648E-2,-7.681227E-2,7.716484E-2],"split_indices":[12,1,23,0,0,12,44,3,0,1,28,3,25,13,3,12,41,0,0,0,40,0,1,1,0,1,0,13,0,0,0,0,0,0,0,0,0,0,0],"split_type":[0,0,0,0,0,0,0,0,0,0,0,0,0,0,0,0,0,0,0,0,0,0,0,0,0,0,0,0,0,0,0,0,0,0,0,0,0,0,0],"sum_hessian":[6.6E1,2E0,6.4E1,1E0,1E0,2.8E1,3.6E1,2.6E1,2E0,1.9E1,1.7E1,4E0,2.2E1,9E0,1E1,7E0,1E1,1E0,3E0,5E0,1.7E1,6E0,3E0,4E0,6E0,3E0,4E0,6E0,4E0,1.1E1,6E0,2E0,1E0,3E0,1E0,2E0,1E0,3E0,3E0],"tree_param":{"num_deleted":"0","num_feature":"59","num_nodes":"39","size_leaf_vector":"1"}},{"base_weights":[-7.9031296E-2,5.1645226E0,-3.1263772E-1,3.3182144E-2,7.4149626E-1,1.3060795E0,-9.805899E-1,-2.2087924E-1,1.8193315E0,-4.45369E0,-4.7316688E-1,2.4677293E0,1.1124738E-1,-5.674433E-1,-1.3414702E-1,-8.327408E-1,3.2408638E0,1.3026903E0,4.0712538E-1,-7.870245E-2,1.2718607E-1,-1.0750815E0,2.5144884E-1,3.705518E-1,9.234505E-2,4.8945468E-2,1.855388E-1,-1.307119E-1,2.0677288E-1],"categories":[],"categories_nodes":[],"categories_segments":[],"categories_sizes":[],"default_left":[0,0,0,0,0,0,0,0,0,0,0,0,0,0,0,0,0,0,0,0,0,0,0,0,0,0,0,0,0],"id":33,"left_children":[1,3,5,-1,-1,7,9,-1,11,13,15,17,19,-1,-1,21,23,25,-1,-1,-1,27,-1,-1,-1,-1,-1,-1,-1],"loss_changes":[8.613465E1,3.0166672E1,7.3722855E1,0E0,0E0,4.0098824E1,8.248456E1,0E0,1.9660797E1,1.5183235E1,6.0123947E1,1.8982613E1,7.2562637E0,0E0,0E0,3.515007E1,8.8531876E-1,3.1371336E0,0E0,0E0,0E0,3.0414257E1,0E0,0E0,0E0,0E0,0E0,0E0,0E0],"parents":[2147483647,0,0,1,1,2,2,5,5,6,6,8,8,9,9,10,10,11,11,12,12,15,15,16,16,17,17,21,21],"right_children":[2,4,6,-1,-1,8,10,-1,12,14,16,18,20,-1,-1,22,24,26,-1,-1,-1,28,-1,-1,-1,-1,-1,-1,-1],"split_conditions":[-1.4630424E1,5.0915745E1,4.805811E0,3.3182144E-2,7.4149626E-1,7.7642875E0,1.1543011E1,-2.2087924E-1,1.8722124E1,9.545368E1,6.6964936E-1,-1.8563773E-3,1.12491665E1,-5.674433E-1,-1.3414702E-1,-2.5007856E-1,-1.5196336E1,1.454753E1,4.0712538E-1,-7.870245E-2,1.2718607E-1,1.1651002E2,2.5144884E-1,3.705518E-1,9.234505E-2,4.8945468E-2,1.855388E-1,-1.307119E-1,2.0677288E-1],"split_indices":[12,1,23,0,0,14,41,0,14,1,32,48,42,0,0,2,2,44,0,0,0,1,0,0,0,0,0,0,0],"split_type":[0,0,0,0,0,0,0,0,0,0,0,0,0,0,0,0,0,0,0,0,0,0,0,0,0,0,0,0,0],"sum_hessian":[6.8E1,2E0,6.6E1,1E0,1E0,1.9E1,4.7E1,2E0,1.7E1,5E0,4.2E1,1.2E1,5E0,3E0,2E0,3.9E1,3E0,8E0,4E0,3E0,2E0,3.7E1,2E0,2E0,1E0,4E0,4E0,3.5E1,2E0],"tree_param":{"num_deleted":"0","num_feature":"59","num_nodes":"29","size_leaf_vector":"1"}},{"base_weights":[1.2713373E-1,5.7217157E-1,-3.0596528E0,1.0550424E-1,5.4044113E0,-6.963646E-1,-5.24885E-1,1.4727169E0,-7.018416E-1,1.1708756E-1,6.170077E-1,-9.866626E-2,-1.7394511E-1,2.9496354E-1,3.2024765E0,-2.2439342E0,-1.4104638E-1,-2.52491E-2,-8.4266666E-4,1.2570629E0,-1.0369962E0,1.3306274E0,4.7416687E-1,-1.161321E-1,-2.8352875E-1,-1.4474541E0,6.3572556E-1,4.434311E-2,1.959837E-1,-1.3047431E-1,1.5086937E-2,1.5047836E-1,3.1700134E-2,3.1523135E-2,-4.894295E-2,-2.037084E-1,-4.504074E-2,2.7474138E-1,1.7100627E-2],"categories":[],"categories_nodes":[],"categories_segments":[],"categories_sizes":[],"default_left":[0,0,0,0,0,0,0,0,0,0,0,0,0,0,0,0,0,0,0,0,0,0,0,0,0,0,0,0,0,0,0,0,0,0,0,0,0,0,0],"id":34,"left_children":[1,3,5,7,9,11,-1,13,15,-1,-1,-1,17,19,21,23,25,-1,-1,27,29,31,-1,33,-1,35,37,-1,-1,-1,-1,-1,-1,-1,-1,-1,-1,-1,-1],"loss_changes":[9.251804E1,1.27967575E2,3.773452E1,5.953573E1,8.982971E0,5.866616E-1,0E0,3.9799984E1,2.9086637E1,0E0,0E0,0E0,3.6874734E-2,1.7962778E1,1.6739685E1,1.0995274E1,2.7304485E1,0E0,0E0,3.7053432E0,2.1051297E0,4.0562725E-1,0E0,6.37364E-1,0E0,4.9613686E0,1.6212992E1,0E0,0E0,0E0,0E0,0E0,0E0,0E0,0E0,0E0,0E0,0E0,0E0],"parents":[2147483647,0,0,1,1,2,2,3,3,4,4,5,5,7,7,8,8,12,12,13,13,14,14,15,15,16,16,19,19,20,20,21,21,23,23,25,25,26,26],"right_children":[2,4,6,8,10,12,-1,14,16,-1,-1,-1,18,20,22,24,26,-1,-1,28,30,32,-1,34,-1,36,38,-1,-1,-1,-1,-1,-1,-1,-1,-1,-1,-1,-1],"split_conditions":[5.3886175E-2,7.27098E-1,4.6763957E-1,5.8583937E0,-1.3402304E2,-8.403697E0,-5.24885E-1,5.4272394E0,2.5453365E-1,1.1708756E-1,6.170077E-1,-9.866626E-2,-6.6590675E1,-2.6102925E-2,4.641346E0,-9.1427145E0,1.0868931E1,-2.52491E-2,-8.4266666E-4,-7.405445E0,1.12329445E2,1.1760999E2,4.7416687E-1,-4.575907E1,-2.8352875E-1,-3.4729316E0,3.0819616E-1,4.434311E-2,1.959837E-1,-1.3047431E-1,1.5086937E-2,1.5047836E-1,3.1700134E-2,3.1523135E-2,-4.894295E-2,-2.037084E-1,-4.504074E-2,2.7474138E-1,1.7100627E-2],"split_indices":[51,36,39,19,0,9,0,19,33,0,0,0,0,50,23,8,16,0,0,8,1,1,0,0,0,12,31,0,0,0,0,0,0,0,0,0,0,0,0],"split_type":[0,0,0,0,0,0,0,0,0,0,0,0,0,0,0,0,0,0,0,0,0,0,0,0,0,0,0,0,0,0,0,0,0,0,0,0,0,0,0],"sum_hessian":[6.3E1,5.6E1,7E0,5.2E1,4E0,4E0,3E0,1.9E1,3.3E1,1E0,3E0,2E0,2E0,1.2E1,7E0,8E0,2.5E1,1E0,1E0,7E0,5E0,4E0,3E0,2E0,6E0,9E0,1.6E1,4E0,3E0,4E0,1E0,3E0,1E0,1E0,1E0,5E0,4E0,2E0,1.4E1],"tree_param":{"num_deleted":"0","num_feature":"59","num_nodes":"39","size_leaf_vector":"1"}},{"base_weights":[2.503828E-2,6.157871E-1,-2.5369596E0,1.2580807E0,-1.4078695E0,-2.7959156E-1,-5.641357E-1,1.8771901E0,-7.869663E-1,-4.6472168E-1,-2.8239617E-1,1.129893E0,-9.3773526E-1,1.0999697E0,3.1903207E0,2.2170506E-1,-2.3911235E0,7.7185726E-1,-1.2116541E-1,1.3953705E-1,2.9946899E-2,-3.6929894E-2,-1.383072E-1,2.8828377E-1,2.382924E0,4.237131E0,2.9911995E-1,-3.0659723E-1,-1.11849405E-1,2.7772395E-2,1.1271286E-1,-8.09583E-2,9.881634E-2,2.0473735E-2,3.0748636E-1,4.5942274E-1,8.687287E-2,-2.0231374E-2,9.0171054E-2],"categories":[],"categories_nodes":[],"categories_segments":[],"categories_sizes":[],"default_left":[0,0,0,0,0,0,0,0,0,0,0,0,0,0,0,0,0,0,0,0,0,0,0,0,0,0,0,0,0,0,0,0,0,0,0,0,0,0,0],"id":35,"left_children":[1,3,5,7,9,11,-1,13,15,17,-1,19,21,23,25,-1,27,29,-1,-1,-1,-1,-1,31,33,35,37,-1,-1,-1,-1,-1,-1,-1,-1,-1,-1,-1,-1],"loss_changes":[9.6912544E1,6.935986E1,8.251592E1,5.2121593E1,1.605024E1,8.480687E0,0E0,2.8129105E1,5.3490395E1,9.247992E0,0E0,2.4350667E-1,1.0081058E0,2.1181519E1,3.2024513E1,0E0,2.5825577E0,3.8917494E-1,0E0,0E0,0E0,0E0,0E0,1.1557245E1,1.1427845E1,5.6316376E0,1.3910654E0,0E0,0E0,0E0,0E0,0E0,0E0,0E0,0E0,0E0,0E0,0E0,0E0],"parents":[2147483647,0,0,1,1,2,2,3,3,4,4,5,5,7,7,8,8,9,9,11,11,12,12,13,13,14,14,16,16,17,17,23,23,24,24,25,25,26,26],"right_children":[2,4,6,8,10,12,-1,14,16,18,-1,20,22,24,26,-1,28,30,-1,-1,-1,-1,-1,32,34,36,38,-1,-1,-1,-1,-1,-1,-1,-1,-1,-1,-1,-1],"split_conditions":[1.106321E1,1.3059408E1,4.7210118E-1,4.1178975E-2,2.3757596E0,-4.575907E1,-5.641357E-1,-2.9678674E0,3.3711854E-1,3.228948E-1,-2.8239617E-1,-4.83357E1,1.4883049E1,1.6074316E1,7.832861E0,2.2170506E-1,1.0286085E1,-3.6206734E1,-1.2116541E-1,1.3953705E-1,2.9946899E-2,-3.6929894E-2,-1.383072E-1,4.2280754E-1,1.2237315E1,1.5914114E-1,-2.6978615E1,-3.0659723E-1,-1.11849405E-1,2.7772395E-2,1.1271286E-1,-8.09583E-2,9.881634E-2,2.0473735E-2,3.0748636E-1,4.5942274E-1,8.687287E-2,-2.0231374E-2,9.0171054E-2],"split_indices":[17,42,40,49,9,0,0,8,31,40,0,0,17,45,5,0,42,0,0,0,0,0,0,40,15,26,0,0,0,0,0,0,0,0,0,0,0,0,0],"split_type":[0,0,0,0,0,0,0,0,0,0,0,0,0,0,0,0,0,0,0,0,0,0,0,0,0,0,0,0,0,0,0,0,0,0,0,0,0,0,0],"sum_hessian":[6.2E1,5.1E1,1.1E1,3.9E1,1.2E1,7E0,4E0,3E1,9E0,8E0,4E0,2E0,5E0,2E1,1E1,3E0,6E0,3E0,5E0,1E0,1E0,3E0,2E0,1.3E1,7E0,7E0,3E0,3E0,3E0,2E0,1E0,5E0,8E0,2E0,5E0,6E0,1E0,2E0,1E0],"tree_param":{"num_deleted":"0","num_feature":"59","num_nodes":"39","size_leaf_vector":"1"}},{"base_weights":[6.2341258E-2,7.926136E-1,-1.2104081E0,4.2987504E0,2.836331E-1,-3.063789E-1,-3.720761E0,5.231434E-1,2.8400803E-2,-1.0884948E0,1.015051E0,-7.8182757E-1,1.5531483E0,-1.1267948E-1,-4.0141955E-1,1.8872578E-1,-3.169793E-1,1.7148788E0,-5.989642E-1,3.745056E-1,-1.2363583E0,-1.7928315E-2,2.1903865E-1,-3.501053E-1,1.3830897E-1,-1.3025093E-1,2.1195674E0,-1.663847E0,1.730456E-1,8.055802E-2,-1.8140411E-1,-5.943936E-1,-1.8878372E-1,4.1525266E-3,-8.861211E-2,-7.795601E-2,3.4603883E-2,9.16008E-2,2.5093904E-1,-2.045065E-1,-6.009407E-2,-3.703461E-2,9.82399E-3,-7.224954E-2,8.710861E-3],"categories":[],"categories_nodes":[],"categories_segments":[],"categories_sizes":[],"default_left":[0,0,0,0,0,0,0,0,0,0,0,0,0,0,0,0,0,0,0,0,0,0,0,0,0,0,0,0,0,0,0,0,0,0,0,0,0,0,0,0,0,0,0,0,0],"id":36,"left_children":[1,3,5,7,9,11,13,-1,-1,15,17,19,21,-1,-1,23,-1,25,27,29,31,-1,-1,33,-1,35,37,39,-1,-1,41,43,-1,-1,-1,-1,-1,-1,-1,-1,-1,-1,-1,-1,-1],"loss_changes":[5.858551E1,7.016293E1,5.1056973E1,1.7236656E1,3.7234444E1,1.712827E1,4.3777466E-2,0E0,0E0,3.5155823E1,2.8135931E1,8.346858E0,4.808585E0,0E0,0E0,6.276271E0,0E0,1.297002E1,2.2723688E1,1.3443282E0,3.4783726E0,0E0,0E0,1.5062375E0,0E0,1.5067953E0,4.269825E0,1.2022305E0,0E0,0E0,1.9489223E-1,6.7404747E-1,0E0,0E0,0E0,0E0,0E0,0E0,0E0,0E0,0E0,0E0,0E0,0E0,0E0],"parents":[2147483647,0,0,1,1,2,2,3,3,4,4,5,5,6,6,9,9,10,10,11,11,12,12,15,15,17,17,18,18,19,19,20,20,23,23,25,25,26,26,27,27,30,30,31,31],"right_children":[2,4,6,8,10,12,14,-1,-1,16,18,20,22,-1,-1,24,-1,26,28,30,32,-1,-1,34,-1,36,38,40,-1,-1,42,44,-1,-1,-1,-1,-1,-1,-1,-1,-1,-1,-1,-1,-1],"split_conditions":[8.797671E0,-9.352354E-3,2.8789042E1,7.5400114E0,7.859098E0,1.872299E1,-1.6217302E2,5.231434E-1,2.8400803E-2,5.8366055E0,1.5914114E-1,1.0736982E1,-6.6590675E1,-1.1267948E-1,-4.0141955E-1,3.8637405E1,-3.169793E-1,-4.3866543E1,2.4446672E1,1.4474133E1,4.5058552E-2,-1.7928315E-2,2.1903865E-1,2.179443E0,1.3830897E-1,-1.2744636E2,-2.7346067E-2,-2.958548E1,1.730456E-1,8.055802E-2,-4.589742E1,9.156857E0,-1.8878372E-1,4.1525266E-3,-8.861211E-2,-7.795601E-2,3.4603883E-2,9.16008E-2,2.5093904E-1,-2.045065E-1,-6.009407E-2,-3.703461E-2,9.82399E-3,-7.224954E-2,8.710861E-3],"split_indices":[18,53,3,4,16,45,0,0,0,20,26,42,0,0,0,0,0,0,3,3,56,0,0,11,0,0,5,2,0,0,0,5,0,0,0,0,0,0,0,0,0,0,0,0,0],"split_type":[0,0,0,0,0,0,0,0,0,0,0,0,0,0,0,0,0,0,0,0,0,0,0,0,0,0,0,0,0,0,0,0,0,0,0,0,0,0,0,0,0,0,0,0,0],"sum_hessian":[6.1E1,3.9E1,2.2E1,4E0,3.5E1,1.7E1,5E0,3E0,1E0,1.2E1,2.3E1,1.4E1,3E0,1E0,4E0,8E0,4E0,1.6E1,7E0,4E0,1E1,1E0,2E0,6E0,2E0,3E0,1.3E1,5E0,2E0,2E0,2E0,6E0,4E0,4E0,2E0,1E0,2E0,4E0,9E0,3E0,2E0,1E0,1E0,5E0,1E0],"tree_param":{"num_deleted":"0","num_feature":"59","num_nodes":"45","size_leaf_vector":"1"}},{"base_weights":[1.7882936E-1,2.0664866E0,-3.1387493E-1,7.670647E-1,4.932394E-1,-2.1938922E0,2.7550843E-1,-6.3386345E-1,1.3888648E0,-4.2182106E-1,-3.6525503E-1,-3.193971E-1,5.2883166E-1,2.23526E-1,-1.11843966E-1,-6.8912506E-3,1.643313E0,2.6132202E-1,-9.995089E-2,1.8638895E0,1.3682067E-1,3.0745698E-2,2.7832033E-3,1.7824784E-1,4.7374345E-2,4.584122E-3,3.1786855E-2,6.483364E-1,3.221247E-1,-1.5606524E0,5.089695E-1,9.9941514E-2,2.2294331E-2,-1.9508028E-1,-5.202344E-2,1.2800752E-1,-4.1991923E-2],"categories":[],"categories_nodes":[],"categories_segments":[],"categories_sizes":[],"default_left":[0,0,0,0,0,0,0,0,0,0,0,0,0,0,0,0,0,0,0,0,0,0,0,0,0,0,0,0,0,0,0,0,0,0,0,0,0],"id":37,"left_children":[1,3,5,-1,7,9,11,13,15,17,-1,-1,19,21,-1,-1,23,25,-1,27,29,-1,-1,-1,-1,-1,-1,31,-1,33,35,-1,-1,-1,-1,-1,-1],"loss_changes":[6.2962425E1,1.1965074E2,6.0439182E1,0E0,1.2993894E1,3.206227E1,3.8602867E1,2.7428234E0,2.7097483E0,3.0236974E0,0E0,0E0,2.0679277E1,4.07172E-2,0E0,0E0,1.3214302E-1,3.416729E-2,0E0,1.2761005E1,2.1009127E1,0E0,0E0,0E0,0E0,0E0,0E0,6.732657E-1,0E0,1.4206429E0,1.9876854E1,0E0,0E0,0E0,0E0,0E0,0E0],"parents":[2147483647,0,0,1,1,2,2,4,4,5,5,6,6,7,7,8,8,9,9,12,12,13,13,16,16,17,17,19,19,20,20,27,27,29,29,30,30],"right_children":[2,4,6,-1,8,10,12,14,16,18,-1,-1,20,22,-1,-1,24,26,-1,28,30,-1,-1,-1,-1,-1,-1,32,-1,34,36,-1,-1,-1,-1,-1,-1],"split_conditions":[5.6254616E0,-1.3301919E1,8.069979E0,7.670647E-1,1.2656212E1,1.5535175E1,4.0545697E0,5.3471203E0,-2.5630005E1,4.5250154E0,-3.6525503E-1,-3.193971E-1,5.5018325E0,-2.1445936E1,-1.11843966E-1,-6.8912506E-3,2.2862406E1,-4.6980793E1,-9.995089E-2,-1.0969814E0,-1.1439702E1,3.0745698E-2,2.7832033E-3,1.7824784E-1,4.7374345E-2,4.584122E-3,3.1786855E-2,1.4474133E1,3.221247E-1,1.08627464E2,-4.207076E-3,9.9941514E-2,2.2294331E-2,-1.9508028E-1,-5.202344E-2,1.2800752E-1,-4.1991923E-2],"split_indices":[18,6,16,0,41,45,24,17,0,23,0,0,24,0,0,0,3,0,0,12,6,0,0,0,0,0,0,3,0,13,52,0,0,0,0,0,0],"split_type":[0,0,0,0,0,0,0,0,0,0,0,0,0,0,0,0,0,0,0,0,0,0,0,0,0,0,0,0,0,0,0,0,0,0,0,0,0],"sum_hessian":[6.6E1,1.3E1,5.3E1,2E0,1.1E1,1.2E1,4.1E1,5E0,6E0,6E0,6E0,2E0,3.9E1,2E0,3E0,1E0,5E0,3E0,3E0,8E0,3.1E1,1E0,1E0,4E0,1E0,1E0,2E0,5E0,3E0,5E0,2.6E1,2E0,3E0,3E0,2E0,1.4E1,1.2E1],"tree_param":{"num_deleted":"0","num_feature":"59","num_nodes":"37","size_leaf_vector":"1"}},{"base_weights":[3.6973825E-1,-9.109894E-1,1.001699E0,-4.354492E-1,-3.7775943E-1,2.2221017E-1,2.8433867E0,6.930444E-1,-1.245532E0,-1.7200489E0,6.455933E-1,7.159269E-1,1.4078383E0,1.5784441E0,-8.0831625E-2,-1.6418613E0,4.9074303E-2,-4.1464362E-2,-2.2690907E-1,-8.513239E-2,1.8963401E0,9.4658986E-2,2.9647216E-1,1.7368148E-1,3.932953E-2,-7.8542486E-2,-2.081915E-1,1.3673356E-1,-5.9779006E-1,2.3788233E0,-2.2394815E-2,-3.2377243E-1,3.2678604E-1,-1.1230054E-1,2.896646E-2,2.5289014E-1,6.641388E-2,-3.1238938E-2,2.7879715E-2,-6.5467837E-3,-4.201908E-2,4.6082307E-2,8.3820345E-3],"categories":[],"categories_nodes":[],"categories_segments":[],"categories_sizes":[],"default_left":[0,0,0,0,0,0,0,0,0,0,0,0,0,0,0,0,0,0,0,0,0,0,0,0,0,0,0,0,0,0,0,0,0,0,0,0,0,0,0,0,0,0,0],"id":38,"left_children":[1,3,5,7,-1,9,11,13,15,17,19,-1,21,23,-1,25,-1,-1,-1,27,29,31,-1,-1,-1,-1,-1,-1,33,35,37,39,41,-1,-1,-1,-1,-1,-1,-1,-1,-1,-1],"loss_changes":[5.3521557E1,2.8345137E1,6.2533474E1,1.9146677E1,0E0,2.7424683E1,7.046445E1,1.323962E1,9.063372E0,3.3594666E0,2.4838165E1,0E0,2.2208498E1,4.4307518E-1,0E0,2.1335926E0,0E0,0E0,0E0,1.4220518E1,9.310844E0,7.857091E-1,0E0,0E0,0E0,0E0,0E0,0E0,6.8507614E0,3.791504E-1,3.491254E-1,4.720694E-2,1.2420571E-1,0E0,0E0,0E0,0E0,0E0,0E0,0E0,0E0,0E0,0E0],"parents":[2147483647,0,0,1,1,2,2,3,3,5,5,6,6,7,7,8,8,9,9,10,10,12,12,13,13,15,15,19,19,20,20,21,21,28,28,29,29,30,30,31,31,32,32],"right_children":[2,4,6,8,-1,10,12,14,16,18,20,-1,22,24,-1,26,-1,-1,-1,28,30,32,-1,-1,-1,-1,